function [y1] = DSDP14hidDef(x1)
%MYNEURALNETWORKFUNCTION neural network simulation function.
%
% Generated by Neural Network Toolbox function genFunction, 18-Oct-2015 23:04:13.
% 
% [y1] = myNeuralNetworkFunction(x1) takes these arguments:
%   x = 12xQ matrix, input #1
% and returns:
%   y = 75xQ matrix, output #1
% where Q is the number of samples.

%#ok<*RPMT0>

  % ===== NEURAL NETWORK CONSTANTS =====
  
  % Input 1
  x1_step1_xoffset = [1;1;1;-12;-8;-6;-6;0;0;0;0;0];
  x1_step1_gain = [0.333333333333333;0.5;0.0666666666666667;0.0740740740740741;0.0666666666666667;0.0588235294117647;0.0606060606060606;0.2;0.2;0.2;0.2;0.25];
  x1_step1_ymin = -1;
  
  % Layer 1
  b1 = [1.5715612385287078823;1.1754385561418738693;0.91554913835644302633;0.56533281268442958645;0.74373719741319155307;-0.72479462287602325343;0.42879748352569690972;-0.42536575126078901565;0.70493698585162523074;0.90403445606306298554;-1.0096523999640927283;0.77555228286693544959;-1.3663319566071070454;1.5020608043340335502];
  IW1_1 = [-0.20514700578384906238 -0.81479633877224566518 0.48975412029654041834 -0.78699177360866312547 1.1642639560190597425 0.3274917675814821294 -0.14700005597878607055 0.84267114264155995595 1.110580650603755215 0.019431054614714421414 0.43228426614985870913 -0.26013625433244635943;-0.58629050389470060978 -0.59387390154026387101 -0.012360304733166502245 0.25275519926230272105 -0.23467953087937601375 0.69866286723662285318 0.45482821984342869381 0.71520271464944651374 0.47427624939796325654 -0.63204774019402076846 -0.18901247095469830839 0.50969542418476476708;-1.0175618331586098186 -0.32407392910537968778 -0.040640710713817806976 0.092440412053984788443 -0.81101253490818003833 0.47341229970314335773 -0.21634776844229253179 0.15337217287024523804 0.27201382566245241312 0.30697358757350284852 0.63587484664758597841 -0.36490907650617715463;0.111874100383500652 -0.23673506274660077731 0.06754967800161040814 -0.042330907057139557925 -0.34212190577413476023 0.84041862417126078633 1.0737065706794399755 0.26530814135393615549 -0.14004141946981640832 0.030076133730607704231 -0.65746048050518490768 -0.026772900925361334951;-0.18780469776284111627 -0.4244570128449163815 0.53101875442476342837 -0.41783023935077717725 0.04433632323593972302 0.030928926064221873293 0.33259337296514657201 0.26218084088401161225 0.39596733080680540651 -0.15970638361368844071 0.44997170691191634706 0.058411977219117179605;0.62886592818865161281 0.50369405281641888017 0.3158198912754993648 -0.24593405926709521747 0.47560352004441885931 -0.022187243076575463574 -0.11276934715408551413 0.17231707910333296518 0.40229876970693401184 -0.715716996511523873 -0.71062525900505790766 0.34576311523790048685;0.34112869954289282148 0.11648459468053970478 0.55223605598917568926 -0.5400018267630806168 -0.47091077071497583484 -0.18161067792356011541 0.69081183310323435176 -0.50504993967581446324 0.22224194204828004451 0.28085617814749602728 0.16773701161156884254 -0.43768665054668465242;0.60110109745656692404 -0.21225440993787447752 -0.31479737634222826337 -0.28450702174826913993 1.6313231064501885204 0.37753790791082353362 -0.11787397846011243852 0.39671307899950575271 -0.046242576530425870407 -0.79875523508769541436 0.33850967874197218643 0.80345694065967843134;1.3969579664239122341 -0.28919828293457239266 0.076795312291752432232 1.1103205838819758533 -0.39506022700885928822 0.66626534893247368885 -0.65134911599500155965 -0.61925987530427306638 -0.34917351089786546892 0.58391497273955239589 -0.17396267312886054546 -1.2411859557262965303;0.24477692458804936604 -0.86537039325736730966 -0.65387317404357636619 -0.055786554160103751787 1.0704239773033283889 -1.5594652383422507036 0.36742018549982979891 -0.24032376302738636675 -0.39099069654953422237 0.74387509636501403243 0.5077079720570543131 -0.23237214971705089095;-0.16198197916945630825 -0.43138197723269533501 0.53058053773885471838 0.58244651878266084921 -0.48744707292047712022 -0.80054934777009856273 1.2663035742936519235 0.071219077792712165431 0.082643372632261610788 -0.30407041076523827483 0.30601119153267680728 0.15037210396524988698;0.23044962025761211999 -0.11341881058199901333 -0.04712744078678821058 0.2619024669539111172 0.33435622908419782018 -1.1403526144185831548 0.080610687920497692271 -0.15150545366020198856 0.16641761826774126298 0.026170080396896222563 -0.19307043193133882619 -0.30370130220303770407;-0.92721752214413766247 0.3255005991452435965 -0.49884523957496429425 1.1400144282741944135 -1.9046008690579259159 -0.15041112253467470161 0.022276038860954180953 -0.20098429111118179535 -0.36325391077403024198 0.36789183828460741976 -0.4523745366231562981 -0.043184044354784262287;0.98178587571714870386 0.021505748147604780707 0.075444892916855299525 0.075730419266041057447 -0.95505604009509115215 -1.2316783129391135621 1.2057466534413079362 -0.21164785717296427658 0.019898176810296194783 0.088773912724748854641 -0.13304251871534678031 -0.27276762749026128851];
  
  % Layer 2
  b2 = [-0.27192617497002741223;-1.424412605270534149;-1.032405094218669106;-0.38540983138119827567;-0.70394246706488750043;0.12169180155572051349;0.24533872068497300512;0.035277935590138698174;-0.77087772008107358079;-0.88755442107498916382;-1.3542189803249140567;0.54755813236842132419;0.31084066876926991219;-0.76397988429375141006;-0.49430716048951445218;-0.75159823043999274272;-1.103909204669351718;-1.0416445169669747983;-0.4150023043141776169;-1.5845054444185890929;-0.89706305061655311484;0.057681794492033755528;-1.3980603775212427919;-1.0238537301724341955;-0.59456345693206147374;0.079173036536338836644;-0.11749272573447966383;-1.4072966122519938725;-1.7531849986558620813;-0.17038449510483311133;0.52349121031968037787;0.10197104780824545189;-0.5298594709326851504;-0.82137621480945621766;-0.55029130850434104794;-0.4993942209714404834;0.22361704037118523836;-0.4787151092348981285;1.0434442623946589279;-0.61084930588914210237;-1.0064085657150203534;-0.42190467020406935417;0.19524213081332375541;-0.11934966321889864393;-1.5884669285446957332;0.95078532542020988139;-0.94059306555658717119;-0.77466357611509928383;-0.65215146748336871863;-1.1200989773061809096;-0.12131730513346569711;-0.073258514502640620369;-1.6126519525622611262;-0.78742022452463344973;-0.14038042501071162915;0.020038684058424321988;-1.2026185578374117835;-0.25252299844461095768;-0.58875451719843907572;-0.88708765125693800346;-0.58702877530003061413;-0.035313383000118742094;-1.6127425490692390841;-1.4126964248878528529;-0.84973084299542467335;0.34020120636792289259;-0.51767617164265533614;-0.81537211376892604342;-1.3238206119948114914;-0.54303453439653948109;-0.59186342059851637654;-0.23473577443488694017;-1.0256858185610697731;0.58671153529781516767;-0.15899675975990174015];
  LW2_1 = [-0.20725886608277221956 0.36460450716612086142 0.23654497215562256263 0.12974244279354393838 -0.5130725537430650407 0.27019929405425763269 0.59676218519596413437 -0.053899306325373604054 0.58881838529986274544 0.26630665774835649007 0.84277959806102309415 -0.74757340530727989236 -0.061855264444449852002 -0.38749386600487617516;-0.034812515601465712778 0.02976290339973675439 0.21428356895074834876 0.38963893923224929283 -0.29534427493189113756 -0.55767933470626318559 -0.13369349582986117531 0.28991772897353790261 0.34958825814186772485 -0.59015666449086245926 0.0090118385994427743779 0.30022290762496867123 -0.35035059977941024334 0.33700304303175765419;0.030980948410408298832 -0.85497061749967284694 0.68205496273752863612 0.51013358491930915761 -0.11940984508945015619 -0.13278827887035316024 -0.65862462913157082678 0.33662124157936418323 0.3057730704023996493 -0.49176275643373401625 0.010565482242829115495 0.11949214405000956052 -0.3427953288815643873 0.66456069275821971765;-0.26920542154786875066 -0.095728282054584334926 0.12172371393445552412 0.066595140321126816696 0.080001974114741719601 -0.19935936326671477303 -0.13279536327976818044 0.056453338854087140031 0.58790535377710340104 -0.53795097059809715567 0.10434542229941239089 -0.565412477913578293 -0.19549689717168106107 0.046666655465785994439;-0.033790326226633519979 -0.459941480629807109 0.41022141253464350363 0.42818581893300367014 0.0061313316884472404689 -0.30985423259817307384 0.033935464133317175262 0.43074498236636044046 -0.4771832948434613364 -0.45399854148296331369 -0.46320980598070055079 -0.2820003037525957712 -0.13570652596296065018 0.57940792640365923472;-0.27147293297492186559 0.16511331583791363786 -0.051074038886968507744 -0.11132639418002537868 -0.25480510740313655482 -0.18471980705064730555 0.19692251130764304445 -0.091287620282009207529 0.65659638411220200283 -0.36069244953688583966 0.4610855411878556076 -0.46969992323792353339 -0.26400224377895437078 -0.72803598311224837492;-0.16824283866651124075 -0.022287166925334611634 -0.27098007965049242252 -0.14197608024500874002 0.38069325775326240402 0.19444653349491755612 -0.10404198933888503253 0.25419220782879831111 1.3084195470914072867 -0.13281275205334416856 0.40423289924684657759 -0.27568238777865117228 0.38722876268776562636 -0.97370427669071168975;-0.4053816750010464931 0.14980152684598782575 0.43665078061995343806 -0.017955992877710463818 -0.62102714017336013708 0.22425262552810804051 -0.36106897637255086497 -0.75062484706478915797 0.86820005872969985283 -0.11507611827846078723 1.2450245802318644639 -1.6511505609959633567 -0.68881466823701487101 0.40192156626715325185;0.2854099933987656601 0.044008289118234449055 -0.10429489387334531236 0.05493782637227390131 -0.34943025102328650888 -0.10473098722817283934 0.29486340246540887478 0.24676082435186247332 0.21497400721653203703 -0.11025440787206497451 -0.11362235161624609225 -0.43498183219211716821 0.21496356346704822982 0.41804221860676649136;0.32908027445689980173 -0.37788277680684545512 -0.15265539528492505505 0.092261968342611230809 -0.068049037390067457221 -0.27292225548066717522 -0.54224887097709406625 -0.020330528944053825186 -0.35213230151039232041 -0.59216319889278179467 -0.4874800029773974086 0.65529678492770571108 -0.1741777713299360042 0.060818111559574034031;0.066198625994910650916 0.22905048625625390457 0.14722845310631335614 0.082242936964261159627 -0.35966445151927223245 -0.15299434311279597187 0.26828647059614618708 0.053781783973125468767 -0.20379888888115968437 -0.27937538539485007316 -0.22273176785724932425 -0.64992979955645802104 -0.11998437847085677288 1.2261111219069922296;-0.27736867597731512669 -0.4369937600730363636 0.27262876426142651498 0.46701396790363580713 0.20760310968569029022 0.21549689815708544804 0.15997830816510594243 0.14826435646540028768 0.58602245084257864605 -0.067239124519855114626 0.58474726985340941265 -1.1457054953857799262 0.23712475179964317973 -0.28188291215173877369;-0.096385589258423665093 -0.54052231863697253189 -0.16634403497399183336 0.40080066040911854763 0.36599260188480664535 -0.19101045458332194249 -0.46963007776505782953 0.11524815416313161087 0.84847984291162603654 -0.085336450512075390229 0.50121781845149881995 -0.71239285888366898902 0.097637258607808086186 -0.49812263862662864433;-0.024651152958582001062 -0.15624484510826783246 0.4339524550586212337 0.61248775761030338494 -0.10262295270232316136 0.25565813379211294043 0.12240699124349629923 0.14526460773858268505 -0.074565271092970189515 0.22588938882975748146 0.138102735748029809 -0.39572569254161782393 0.040007459852187787774 0.1517238727722208802;0.11623628179407882732 0.017919267419091049198 0.099703729979852703802 -0.13673286989982993966 -0.1623003799152328841 0.52424570409761828138 0.085415034373804724077 -0.17171401921480819452 0.60469315721711069944 0.44275063159227218135 0.14591993265174366123 -0.3772877714635818891 0.017989663059610722096 -0.45290132507845326515;0.34844970307629785644 -0.54751809251526040168 -0.32309041938159854812 0.78410752686050777527 0.21945549473513734084 -0.75179403593356353142 0.0093389965113705106226 0.78169572221597705131 -0.3358475858251613877 -0.34518904812202183541 -0.47971858436664910341 1.7060221955710601627 0.33405409479232295311 -0.87327902792776357366;-0.0008891316006979788078 -0.55012946605438717285 0.23800402073871895769 0.26589519833243502323 -0.024127297565365357634 -0.27266457036102120792 -0.30611808376846144641 0.21703915347442259698 0.24133213659085908653 -0.25069507055193335221 0.028232755424834853064 0.13224551891054142638 -0.1849494827384167428 0.23863070477486289511;-0.13995378036296943214 0.18276490794965002951 0.15664050959566500065 0.09555434585780449297 -0.36045229161720698796 0.060011760754677068164 0.15899096416380703589 -0.095584408613399590715 0.024387369346856944963 -0.069503391797988464673 0.40910074460173212474 -0.41847249714457990244 -0.15179529386250736889 0.69185251467725561447;0.22515052538259858195 -0.15151774294788278308 -0.18841653907618521879 0.34938008280438709319 -0.19778158637432247113 -0.33415817561595917429 0.1241393855335567592 -0.044951675412143760058 -0.82309493219492013694 -0.42185501805279462806 -0.059988885417552886836 -0.29240765896996384621 0.14120847846398351666 0.76264419861173304849;-0.43525788313295538101 -0.25768907366113619206 0.12179343392009300828 0.24276048138222169892 0.5129701287392069986 -0.43034138636577695669 -0.64018407789538278596 0.34474260970983111596 0.46037004110873480656 -0.76232210202364703022 -0.32023667117745813204 0.33117243722295391928 -0.14054855712747504892 0.70325728989262481505;-0.30181566805769988182 -0.31861991891126728582 0.90563722495401355328 0.36324069618965659778 -0.074889520323283970127 0.49463187798300212172 -0.4033390443074758025 -0.11513368764598122529 0.06110297658755611816 -0.20230010078834770315 -0.057938874171681808978 -0.58616577394970759141 -0.53504993014373336546 0.73251720326995661825;0.1376337823764529622 -0.52645763842685888712 -0.34986489149860428016 0.39964442739092009838 0.062870935488500492849 -0.51901801507265954427 -0.21913097826180044647 0.081272410962227897846 0.2674627303814535173 -0.51674209644717294942 0.3844298654175269947 -0.13969554498388198072 0.11900660651938085866 -0.06659394553036165898;-0.17641009103851187922 -0.52796709874094960302 0.021677949675741214897 0.70362489243114900717 0.47022670516574571753 -0.40619192648857671557 -0.24424444804725817249 0.56973763928852227956 1.2745020202218091399 -0.5488823054558527037 0.61109790204262726121 0.83528050585542934492 0.33456691426926793431 0.079109668495184248815;0.16696105936664357161 -0.4796747970918555648 -0.091000368761271460682 -0.0026765200295447572065 -0.11235080508748646055 -0.91005451415943239279 -0.35387488964049035323 0.35939447775373384308 0.56163689036758979167 -1.0320211870023405787 0.035330965700399653839 0.66170846702372732029 -0.22081991837902248399 0.22313857210876131276;0.14748850385098677407 0.062950371594152509935 0.70735766358342011539 0.85264969141616475667 -1.0696060404269549515 0.13801664270622265862 0.93435739053839217405 0.60072734474246392011 -0.15476509820746664481 0.24782896159548511994 0.41582198628143451913 -0.13336464422752036807 -0.021973292141765285446 -0.075875455971047167658;0.23492759134503457541 0.0039443860408221176339 0.16780974821347896531 0.19154129802536862259 -0.13949534933247101365 0.38265197444235893309 0.4827928034672248625 0.35353125061363627202 -0.431494587624361714 0.19131754805964013011 -0.47862007816167229102 -0.11441469239498779087 0.28072498804493617452 -0.70311688774398217738;0.60189510778271182456 0.12826073365582901786 -0.31603932148923097323 0.64148657792092322882 -0.69317956972218075506 0.030773642924948441113 0.15552008406118023043 0.10345653260717174726 -0.26041228277395878088 0.52687235496314066552 0.10427222265414461122 -0.93268112197792363283 0.31333562168501150058 0.40555939773499150025;-0.24743648660591871513 -0.28303001576498110214 -0.40523661410550115836 0.077363702125823580191 0.71716525882325465879 -0.55649399201865989983 -0.62686732459444904908 0.24817092523026146322 0.17955255174325421286 -0.5475578366463513813 -0.41077416450307535634 1.2671474280984182936 -0.088510608187577777262 -0.26162292239389106641;-0.40866154313080327309 0.14008845330498062576 0.28345772205931268894 -0.11241311044795523899 -0.30656552953375065806 -0.36560740740628094869 -0.55294740033283562575 -0.08353310981891025333 0.86063441270720464349 -0.511323965992492524 0.34901801205928839611 -0.27006312835938728334 -0.74618178282395941636 1.042551230704685139;0.16516369281301296335 -0.43695756690739512296 -0.19979153204801031185 -0.11093440522565398143 0.0492903773069504475 -0.35137794060282645514 -0.57761476204894701691 -0.075195431766544376662 0.25926718278420557429 -0.62419781638485283271 -0.35532226252514381715 -0.043735212456232644418 -0.25217560249522064098 -0.46679477129339053132;0.23188761756968326311 0.1743352971477898361 -0.0043531674159528951917 0.22973595841186741917 -0.60169049422287368412 0.28746823470961568869 0.70003253195578141188 0.077880735570152598291 0.10350046422873841745 0.12292893742577976068 0.55181584925172011413 -1.4002662745805098954 0.45299109021073952208 0.14928539410387953179;-0.19776555600138856494 -0.043578147544669279534 0.4260322639792961108 0.12049091590257078599 -0.040223529077163325263 0.10390811963992063749 0.015103341480334511043 0.087048105209907772339 -0.0017473333820916918391 -0.33528913849580843642 -0.63796574939654704384 -0.17262012683033622906 -0.35084175183298038636 -0.97581715676378266711;-0.23140603435228349061 -0.1545785201631656447 0.98502297072675226719 0.49244547791413861848 -0.24335969218829189842 0.74995558449407162538 0.39110957898819576073 0.30137978395355669026 0.85229647801002694774 0.25424691552269496064 0.65311988190532699328 -0.99396724512632961268 0.15023565132653504683 0.22846145313225696416;0.029990110097130470712 -0.27289451120570662468 -0.21132965823021321317 0.26990677032588944462 0.14877257450081216028 -0.39158665677804516125 0.36704536663321390977 0.57727569074203133326 0.10081773961523686489 -0.41388324032860535073 -0.13776305621200946039 1.0867335546911418565 0.33405343195246522958 -0.50065349937041536688;-0.027100567897753037594 -0.023653006498158157811 -0.49117658574201683575 -0.057924371442692593193 0.32029902133372051276 -0.47992051750355918527 0.055192664215379425019 0.3254890653020745539 -0.26767103538351022518 -0.7574446139606937356 -0.19118891906836538164 1.3908975874345697044 0.14697955260248918297 -0.51400361085907231296;0.077835263873643534271 0.45093408751195296347 -0.15067567493500913511 0.2541585598838007054 -0.52323352188867133794 -0.12008190464545984155 0.70776645822312389544 0.12498781427161341495 -0.44301660263060960165 0.013111505006289478348 0.26771192119749542826 -0.21664794503664899783 0.14568598775880881036 0.16920075847620064113;-0.47863113804801460383 0.53208899150573296666 0.43831420016037997422 -0.096648293126189957492 -0.25451373930932930101 0.66437588653083290424 0.4946998798069777159 -0.17258525358708898256 0.95982953675601911936 0.23710699447494917869 0.65687995853503566845 -1.4106512727139306485 -0.14250911667707610864 -0.51338440048717348674;0.14103302614630852663 0.20804062668807093983 -0.1769133535785319955 0.039321123678059614892 -0.72840899962299454629 -0.28665714215993820524 0.017259761778675872246 -0.2532400149672799361 0.051598199096804006625 -0.63015739242338186799 0.83308028435785874688 -0.63292545833369961983 -0.14814042336246330267 1.0115282888740451117;0.48693928950474646422 0.22192028264754418143 -0.44958774996396078105 -0.11580294508848795743 -0.33593645021940293782 0.17164663868462817775 0.3599751254309524473 0.33696526972601081873 0.29019257505041706757 0.11082303304405433098 -0.02182116212482052009 -0.23532444761703441571 0.61384378719400456426 -1.3444373106000375717;-0.11506508465096590421 -0.042115216797595458886 -0.14905705339789568353 0.19623625624440066417 0.0026589515923485171345 -0.50060536387290344162 0.078590975059950857196 0.39748473622044888653 -0.15808684146032903062 -0.53653912816026338994 -0.18107477118997150622 0.60142924382974272124 -0.10420308167990723069 -0.31663676519295202993;-0.28724681345490227224 0.13634301398510306758 -0.12088589793362333746 -0.084301910848344235871 -0.0064934718348111895858 -0.35417743495729414605 -0.45266821004728691191 -0.32060941388813779529 0.46696664748305649617 -0.16735425848083876343 -0.01548916803699516842 -0.57885780154096988515 -0.64956711555368173983 0.27654720669877741468;0.28423764562614811657 -0.74501248530580665985 0.04906659265379549606 0.59696996605287755422 -0.021672206026645754462 -0.30042719900885772599 -0.2511271875314152191 0.36514367867244590382 0.23489744424617284291 -0.21284218240857019633 -0.10021784950565382211 -0.45263592147306286329 0.13013977224891126738 0.24857624947769391133;0.31117721439285078722 0.21001731531061554326 -0.01702170396211745429 0.28331959983459248376 -0.80959383206404889055 0.28351897672301140663 0.83913005611915214565 0.14484761862427741885 -0.40463719589923552444 -0.043064974220727636478 0.44093026973350513131 0.029085639220867237631 0.40443734021685801006 -0.27150982538671414313;-0.13746903410523997335 -0.52937434079736833681 0.53884691316149246898 0.11406343513419479885 -0.090166025412629802194 0.20253510941028421422 -0.32435985945937034769 0.21227923641361734486 0.76037556285646989984 -0.47034283202882254393 0.055155290424081605816 -1.1228711932474977342 -0.16174240835638153957 0.46496622924268776744;0.11345454747843058962 -0.10893331016208934736 0.1572862283428002883 0.40962706284047628591 0.0065691762111233301114 -0.019521995128004301923 -0.26095774099225305109 0.54649195845061182553 0.55669283696532345651 -0.19041849625027576498 -0.57149804903397982692 0.71144237612481020516 -0.073175708263628305716 -0.24578415805773115577;0.032785076340251718963 -0.33787631532867012929 -0.34613304816801915287 0.065813698642204682132 0.27101719836935289631 -0.21329400402730175346 -0.075943365184436589788 0.043473283435263410102 0.21900001432498766851 -0.069503517727025607154 -0.29947322370508366873 0.73239011271175280537 0.038106976222661931297 -2.4189446446809244051;0.26398088182750506503 0.12899568323667209846 0.2639939383505360837 0.35127067298929298689 -0.75826979494735102794 -0.0043149165227716335114 0.63425258135684203786 0.50915162718876905146 0.021191878399118610488 -0.27886618688034076063 -0.0022484620802115263399 0.88797010800423969989 0.10480996070267555031 -0.41660985863174826438;-0.044925132527707717367 -0.23712276628461143035 0.24112957528893663728 0.3096288358182657241 0.15785921015848131121 -0.19221214493210100893 -0.15775568711145965262 0.29320881447408214671 -0.19792334194899374733 -0.47921734287284045717 -0.33885238326596550662 -1.0375629136712549716 -0.0073415259800100746146 1.3670343871105430367;0.092081595021365231224 0.028215770370262557853 -0.42127612016068227696 0.24783479257582269328 0.06366571323804579019 -0.54505676465380914486 0.49635987401095826854 0.46710486724153998939 -0.55359913798066617829 -0.2767536605837543906 -0.3509243388999448432 1.5211312212423093726 0.19319375702104563119 -0.94492616410595609011;-0.19561666511335018548 0.29686621187681022649 0.50078332994023755376 -0.082203418780130127486 -0.55285300127610770282 0.21346937706629914855 0.28522113468560617022 0.27544900978765057831 0.27709310985988705456 -0.061443600708912554653 0.24539619275006485655 0.25138578025758706591 -0.26458232410770571308 -0.011556715933087310932;-0.20551065034143506383 -0.065474534130678052612 0.1974145017852632078 0.047529289169851413055 0.39385764900007352862 0.53419217465175483639 0.037224328819957734626 0.07474950939858376886 0.24929988382660223101 0.16737407649191568537 -0.39509026633530508477 -0.71793582796253385681 0.12259038661622098654 -0.34076545305228977956;-0.59491360640826307371 -0.21130071414598178281 0.6076256047051903364 0.075199955096814818933 0.40707214627402771301 0.48472211626274275265 -0.21075473359059629375 -0.19937989432470867857 0.76690773299856529466 -0.21245366733803888737 0.1327957637779270117 -1.6945364607314485905 -0.15756474400292036497 0.29683594150286046753;0.064439367067466307715 -0.20216945986672818503 0.4803135713930063444 0.11912575705252788361 -0.28296491040464749611 0.020406937195511981598 0.081083450294392872548 0.30271269487827184852 -0.37252014156562118785 -0.39007125556198463112 -0.61280931356928147746 1.2671117744064310795 -0.43210591826391692161 -0.10359205322980241659;-0.044062417591009289675 -0.15988672378882545777 -0.054171179840889024937 -0.10687867375645851431 0.23142353877374302606 -0.064311322326780134828 -0.14967171499483453156 0.24365997075369158487 0.78488145434166844971 -0.38209836391841994763 0.053014876209057967826 0.59039215967358027459 0.092934520243289464592 -0.55601194037043022433;-0.21416321395060164412 -0.19824315873330217164 0.29439251436975655274 0.42920444435618282375 0.19369690904273206833 0.0058044261211191577887 0.45306601420898173771 0.83121000169272685199 0.72346014870029284882 -0.12179424895856508226 0.015616889481684131935 0.88963759054227220524 0.32504768380465909328 -1.6996070398675158231;0.51860853515149729631 0.30626852225190287493 0.14146878056454598171 0.31987862244409653867 -1.1580767941148060185 0.064133552978577368364 0.69765927312858944109 0.37690775976030321814 0.0094411653112874971416 0.24489044509403401495 0.47796780797944893315 -0.23018255113332858341 0.15054663522226577332 -0.47422532261548488997;-0.0064509210764310369324 0.012175853083884788375 0.077140323651163952845 0.10650077377322053618 0.049028315543414191513 -0.18261929241295732362 -0.11936811584555084842 0.15941235354437652272 -0.040636718564504695217 -0.21796160955949400728 -0.60876537154957621745 -0.31317433213931628044 -0.097059115201913209736 0.4323776915785428332;-0.02649880354493606982 -0.90387588929095963319 0.16977468466778372624 0.36101826842457335198 0.7568595183427000439 -0.33242628519898603789 -0.34484475581620671614 0.58846605709858723632 0.046502870913117395901 -0.51495264279096120141 -0.93845498567210627883 1.3675196873845389955 0.04466788568143781335 -1.4548834371333043691;0.12244753569144498084 0.62675030029492206918 0.2299211423272383148 0.087997697407404373848 -1.0378760324917415403 0.26454321970959782107 0.94201886465290041173 0.053280973120126640108 -0.28371630350605447912 0.15946460542255255777 0.22560040892889754449 -0.90751031672497761704 -0.018970372922914535696 0.440673285510891799;0.12928262677140273107 -0.18352515120205337151 -0.095220392151185884178 0.16081281772002170571 -0.31703181203295727197 -0.40511700704611997015 -0.27223960766405541634 0.051213995651713549451 0.037264509642734956751 -0.34963913371087729232 0.13839394985738906474 0.54483793643038114229 -0.2301171855868664462 -0.074230677595033545124;0.26993170161688662123 -0.46651049414517370417 -0.077738697569701253887 0.18084407152706546973 0.011466911488946532338 0.2240653795171750895 -0.61650746925638910678 -0.014627357548845781876 0.56231876215030185406 0.12521134879901174575 -0.1223768377332116325 -0.075074613676677642848 -0.062362438965699484861 -0.14063371934019919252;-0.21455581027181996889 -0.2180614459421412743 0.17564098526691251934 -0.061451169319058418505 -0.076712094000766922752 0.068123214081195593295 -0.26825037857580041889 -0.22543140368730676948 -0.3647552449149333853 -0.26625087321677859409 -0.31367063219853552614 -0.76277348170996250865 -0.40410233159210423581 0.17311774467100238262;0.055794348736510207543 0.22763989955718633151 0.51922512922197905372 0.13853986352448979802 -0.76744258630042350156 -0.045986299867212684922 -0.13036011869039579314 0.27632718035145548141 0.55353276764349912398 -0.082874059517439618849 -0.15378860958440590534 -0.2174354709901975824 -0.47622764910108766889 0.35009183380554026455;-0.21060371142470779571 -0.46768270960227287247 0.23535012596089815995 0.34910269715083108721 0.11452363449085370406 -0.59561645664965545688 -0.45436602671282749766 0.24686571316410621524 0.56530678626224517558 -0.73557285522155768653 -0.018930957797613164745 0.18906246578313801177 -0.40736956414288760797 0.46927603073282975199;-0.27415288919495167663 -0.10420633307669274759 0.3661772690322047108 0.26209999212762802312 -0.1846944430019527017 0.085445137337674642586 -0.0082737572882070758995 0.18735304163955296408 1.023043171769411952 -0.10317211859179870048 0.60375130941365384718 -0.13184015143948796256 -0.20832743707061424088 -0.34430075886039568367;-0.19370959173331706027 -0.53001984408379387848 0.18217364869044130882 -0.030963273461812448883 0.39848307958474044055 0.24932600152786393854 -0.076886045110028791716 -0.13244214605215257063 0.65509108919817005123 -0.41554912609462907325 0.48490938301340541505 -0.42029087928156638743 0.22557190588756950711 -0.29035001315506625552;0.31844236011794274654 0.076134692943523124553 -0.32225103852158587525 -0.19738727126405497536 -0.60945631323784343891 -0.19493538543989646916 0.050938139808733240432 0.04385618451052670369 -0.14571026858648489233 -0.12886925684727937313 0.049810349588540581145 0.24291325803042357334 -0.11641035700778012973 -0.053362317644569334796;-0.025983884849416466478 0.34725325777258636561 0.20319488880283306798 0.065832690423039144645 -0.72738694959868488432 -0.041409858349957778811 0.37109678306871973774 -0.051339981659923789037 -0.31709761377487316603 -0.17478595981794409209 0.19192024779804828238 -0.5517524808818483617 -0.26855155330606050867 0.65947244847269470558;-0.3050804529557981648 -0.47575318575793562603 0.44107441218000736916 0.61561136225505563857 0.51615842883656704032 0.0092610043455908230836 -0.14910415175856239767 0.41010995463256377791 0.3658321830015856535 -0.073840512925396270538 -0.020615643483659240598 0.41284544817354190682 -0.062217002390223256902 -0.17202736956770403598;-0.0072020820681675742914 -0.2876464370547774374 0.35932768081730093179 0.31095323935731949971 -0.28306800377322838269 0.062055044566394629291 -0.25224414141581763538 0.042753354870411264255 0.88693768811752393688 -0.12492451066660806291 0.59372131702442121348 0.13029026192125570116 -0.32029302858877001237 -0.67349758532514214515;-0.21676559867745653909 0.086945819879844135625 0.12056554493169271969 0.6038601385780664188 0.014762419917661466495 -0.16845056108878297962 0.74046305789891786464 0.49602153429760614811 -0.59392387247119837745 -0.14000927651934322316 -0.39944650251751084857 0.21395860542169020668 0.019394774535389756875 -0.16478070529893085183;0.0062164677871017204325 -0.28037542833419570876 0.14120348948629241059 0.12853912488005359016 -0.24590528881818207729 0.060824686342064449018 0.20341378541297031046 0.01264032078671744469 -0.9146285492326312605 -0.31737523359847463755 -0.28893350691121461038 0.94481369140866044987 -0.22368000698564435846 -0.46814128162490920015;0.11128462888385085017 -0.86718994069039478934 0.26035668229396952134 0.79668836872648540748 0.041306921361587645158 -0.50605575823807946723 -0.36414982016211694393 0.37822587677791286165 -0.55286944803833981688 -0.64463185598780348151 0.20161330273216537812 0.58532334409788089324 -0.030350838309564046047 1.0869881634260636361;-0.41908144772838373804 -0.563548388905012132 0.4036938092859003735 0.23328142572684984479 0.37426886162963524107 0.15360228263905867374 -0.31419535770421158638 0.052713507492662403653 1.0300470329033353245 -0.53287983452280585084 0.43843291126133110414 -1.6085158094793370331 0.098033303901971124983 0.18785726493085341815;-0.063585577688494820947 -0.41224703808575585695 0.13873389436409439002 0.7244094169854760068 0.30077546947706512714 -0.39221090019887605571 0.26253543700936898819 0.65680271641194265531 -0.34331871244987488545 -0.43315640555733792016 -0.45289132572113344199 0.32986233673620751761 0.31614790836066497537 -0.50544564336169961472];
  
  % Output 1
  y1_step1_ymin = -1;
  y1_step1_gain = [0.125;0.166666666666667;0.153846153846154;0.105263157894737;0.125;0.166666666666667;0.2;0.0645161290322581;0.153846153846154;0.117647058823529;0.0952380952380952;0.166666666666667;0.0689655172413793;0.0833333333333333;0.166666666666667;0.0869565217391304;0.153846153846154;0.133333333333333;0.133333333333333;0.181818181818182;0.133333333333333;0.133333333333333;0.08;0.117647058823529;0.08;0.0769230769230769;0.133333333333333;0.0869565217391304;0.0869565217391304;0.08;0.133333333333333;0.25;0.0666666666666667;0.222222222222222;0.125;0.105263157894737;0.0909090909090909;0.181818181818182;0.166666666666667;0.133333333333333;0.133333333333333;0.117647058823529;0.125;0.25;0.166666666666667;0.181818181818182;0.117647058823529;0.153846153846154;0.0952380952380952;0.153846153846154;0.125;0.181818181818182;0.142857142857143;0.111111111111111;0.142857142857143;0.111111111111111;0.125;0.125;0.153846153846154;0.125;0.117647058823529;0.0869565217391304;0.2;0.0952380952380952;0.08;0.25;0.181818181818182;0.0666666666666667;0.0909090909090909;0.0869565217391304;0.133333333333333;0.181818181818182;0.125;0.181818181818182;0.222222222222222];
  y1_step1_xoffset = [0;0;0;0;0;0;0;0;0;0;0;0;0;0;0;0;0;0;0;0;0;0;0;0;0;0;0;0;0;0;0;0;0;0;0;0;0;0;0;0;0;0;0;0;0;0;0;0;0;0;0;0;0;0;0;0;0;0;0;0;0;0;0;0;0;0;0;0;0;0;0;0;0;0;0];
  
  % ===== SIMULATION ========
  
  % Dimensions
  Q = size(x1,2); % samples
  
  % Input 1
  xp1 = mapminmax_apply(x1,x1_step1_gain,x1_step1_xoffset,x1_step1_ymin);
  
  % Layer 1
  a1 = tansig_apply(repmat(b1,1,Q) + IW1_1*xp1);
  
  % Layer 2
  a2 = repmat(b2,1,Q) + LW2_1*a1;
  
  % Output 1
  y1 = mapminmax_reverse(a2,y1_step1_gain,y1_step1_xoffset,y1_step1_ymin);
end

% ===== MODULE FUNCTIONS ========

% Map Minimum and Maximum Input Processing Function
function y = mapminmax_apply(x,settings_gain,settings_xoffset,settings_ymin)
  y = bsxfun(@minus,x,settings_xoffset);
  y = bsxfun(@times,y,settings_gain);
  y = bsxfun(@plus,y,settings_ymin);
end

% Sigmoid Symmetric Transfer Function
function a = tansig_apply(n)
  a = 2 ./ (1 + exp(-2*n)) - 1;
end

% Map Minimum and Maximum Output Reverse-Processing Function
function x = mapminmax_reverse(y,settings_gain,settings_xoffset,settings_ymin)
  x = bsxfun(@minus,y,settings_ymin);
  x = bsxfun(@rdivide,x,settings_gain);
  x = bsxfun(@plus,x,settings_xoffset);
end
