function [y1] = DSDP24hidDef(x1)
%MYNEURALNETWORKFUNCTION neural network simulation function.
%
% Generated by Neural Network Toolbox function genFunction, 18-Oct-2015 21:58:46.
% 
% [y1] = myNeuralNetworkFunction(x1) takes these arguments:
%   x = 12xQ matrix, input #1
% and returns:
%   y = 75xQ matrix, output #1
% where Q is the number of samples.

%#ok<*RPMT0>

  % ===== NEURAL NETWORK CONSTANTS =====
  
  % Input 1
  x1_step1_xoffset = [1;1;1;-12;-8;-6;-6;0;0;0;0;0];
  x1_step1_gain = [0.333333333333333;0.5;0.0666666666666667;0.0740740740740741;0.0666666666666667;0.0588235294117647;0.0606060606060606;0.2;0.2;0.2;0.2;0.25];
  x1_step1_ymin = -1;
  
  % Layer 1
  b1 = [-2.0731951550827680819;1.4287955464917940773;-2.1412083311042655609;0.7606357611296565846;-1.0685571185294262531;0.85677202664033025314;-0.81907126831016197066;0.043023485010552753316;0.43638050794390492726;0.50057214776427283454;0.35128927537405174597;0.37621407068574447274;0.06691607790371022213;0.10867231274505256833;0.34262482316526676751;0.59711422515792644816;-0.60349888984208388543;0.79319603403629701521;-0.99946862000871028453;-0.58526733085624726982;1.3222248413762203167;-0.69996014438000764279;-1.1342420696115242951;2.3057639217696443978];
  IW1_1 = [0.23542895598628174603 -1.1966568411807396721 0.21566843868157123398 -0.28445133518321874533 -0.95910318578232789388 0.44684633611300178524 -0.71082356477695973762 0.704747644677681917 0.81902080123193199412 -0.73966532791588868179 1.0679501091329703932 0.10753195743062238243;-0.00083700150320997757092 -0.78644766304049040784 -0.66267651544049210877 0.19114530672384649757 0.71929593751688036818 -1.1632675457908197014 -0.59723810363121765388 0.66442131355659739267 0.25440929376090398728 0.51640908137566765568 -0.086562288422382657749 -0.029501264903123186611;0.29394513968870872311 -0.88087606755148972759 1.1348051535797030187 0.013639809213480569294 1.1857602528471726799 1.4907146560509174638 0.84205642217188092502 0.27912918087515747878 0.30699217669948458687 0.66022232181865292411 -0.061955982029533007704 0.23091626063554607229;-0.028156740473394115121 -0.14621403107661837262 -0.35796745553119702077 0.46123738097068511799 0.52457008165386775911 0.34606830709181174432 -0.066004677114672866134 0.47012655996590291263 0.51237901932754936762 -0.51607389281065929598 0.08314729327394757008 -0.58052818834924424518;0.29339341510535810187 -0.42553334070206816353 0.058658503753293733674 0.066239701586494170726 -0.39196224145618763224 0.21681551262753007148 0.053095749924975010892 0.23833572575945768945 -0.00054986987827193578582 -0.22027224060871153366 0.1740292204518000263 0.15186514063852168954;-0.58291930273393421924 -0.83334433666932716811 -0.27541054867654107818 -0.30143147297156608344 0.70043714380275878817 -0.46680373836052307945 -0.34536864864718497259 -0.28493019830466392861 -0.069074808465568640625 0.1976797027649837557 0.3715223293157454143 0.51951792582511624463;0.25980466783724354141 0.015375536172730797091 0.85417084453779257291 -0.41308859717505186371 0.65570628468577552006 -0.78232895006274438821 0.41801501154079889755 -0.69287645787431828559 0.49017083194299859716 0.26588123958440446071 0.4510742263861454715 -0.092624786444611556524;0.41243317931628131756 -0.44690746333615094521 -0.34759954039484453059 0.38731997759660385938 -0.1245340449401455829 0.26964700271858910163 0.016111967951230488083 0.44662654452015437823 0.33806709325750228246 -0.15426257320291530961 0.1619047508049160089 -0.087744873609195639386;-0.14609751058625580766 0.1660724789248301525 -0.5807179515579519169 0.64570207273714852469 0.25744364632001104365 0.34299815174233505566 0.31519959168306987962 0.57795522112637454093 0.62085944683337446204 -0.090514548341181305657 0.32048734170673220945 0.073622527882247490449;-0.022899678128786599141 -0.35574469678920628279 -0.082900935607413628325 -0.17287574008963346728 0.41573361061712343911 -0.98936834808342200009 0.84373332503010345373 -0.26220384729677304048 -0.35526241558073046178 -0.14646709855657535915 -0.095927940319941895631 -0.072667938292364231412;-0.61041521763737682793 -0.63996710940642009824 -0.77625852606206402484 0.10610812119477208704 -1.1757750179616253128 -0.034442346928571510034 -0.032181239914699732996 0.21220882353423187183 0.6228336776186123025 0.25337233746725174033 0.51361845900743219318 -0.51216993656927778389;-0.33648393023243716726 -0.011527459018753682951 -0.55614022217170799856 0.38047636188082811781 -0.42453783550715101791 0.8760313157714405552 -0.58847051950062945203 0.37022273802038219159 0.074752560833155345943 -0.68578637835244704579 -0.41552943085180793492 -0.15291163062842652587;0.32365774776309058636 0.63562437225147228048 0.19783352238832727088 0.58612711163304220818 -0.070916589349203029702 0.71511243597154261487 0.50604154699343695256 -0.25772555397392582499 -0.54691111572715933598 0.3681234348092914388 0.81772588690143699353 -0.37208430412179610558;0.090502110663008894509 0.059085525476289993407 0.27093257456316011123 -0.089077218010017167327 0.36714285754732034484 0.46245799386633934525 -0.17062480198688312338 0.0098454154935423351946 0.48187315685062237502 -0.35125590316311383621 0.3964165663617252866 -0.600124230722942964;0.45150336808985624959 0.47366245140281310055 0.58745841440237989151 -0.5584438270779278346 -0.033073702024280116074 0.77952581457172009927 0.38139325471593249484 -0.13828417226120684469 0.48669298848685982328 0.59543028708913436908 -0.02656890573489481544 0.21451374929548683301;0.093641005995915183036 0.52892850636494781469 0.040073679087571534296 -0.01615194228216721567 0.48227511439221087963 -0.30868473350087427542 -0.22696170622720379662 -0.17207555634448384874 -0.46447475303876550878 -0.53623097996263435761 -0.28080573198073144336 0.49078193769728489793;-0.10668354722653408673 0.21814943225238375701 0.59134185598156840946 -0.32235341959840124737 -0.62697428721995951406 0.55983745767150616679 -0.4103325586226528876 -0.85838915792229686375 -0.16586320762778838933 0.36995941104356300233 0.43704089194293294085 -0.50231320261187573095;0.24149156033521268494 0.034570696838863518296 0.35163399664042138681 0.34963274181599518498 -0.28440141030360704955 0.39183394113335551223 0.37725804270562757203 -0.042912059407922475973 -0.093976300356226935562 0.54484735687099594692 0.36511732153329645723 0.65844443186214640651;-0.82329013899638292528 0.24550301438079277783 0.62936399900562156606 -0.57902248235321995828 -0.1778831022522827654 -0.55788218827664415311 -0.29055836986851846238 -0.88791320743790935754 0.20477487937395594253 -0.086341046907366297836 -0.27958979746310064218 0.25390493405565905949;-0.60129910385540152884 0.15746617305745722049 0.0082350848375873086926 -0.275020432181529495 -0.14229987505932509273 -0.33826266139961047585 0.20055489647034252521 -0.34245177974925822273 0.2067514427635803731 0.35424744266294738715 0.1081266816620695681 -0.42739310106523920041;0.46148594991476887817 0.36003285031621312662 -0.63992702726680716907 0.029863450437213459598 0.70573713640537616421 -0.21704933228405431933 -0.79275032882445106708 -0.062866849337492466954 -0.085003071813470498785 -0.23994358575690238888 -0.14404708800226401211 0.2163858238979482207;-1.0021250824451697348 0.067617688936666503485 0.27681488547085697505 0.017472525461300847383 -0.56922619647633898587 -0.700670528603878906 1.3643844391867507859 0.38088706856388565569 0.040666315329819624491 0.57059530015996351437 0.72507584394522539561 -0.60358051254383315865;-0.65194692088761940774 0.98126862374714085568 -0.00055451447284297905593 -0.38504023486393490483 0.062895697023321761598 -0.89746834633761030098 0.51020054864512875969 0.69647778566735385475 0.13868264791420870097 0.22811904023419773968 0.98653981097339449313 -0.12880719381347138786;1.0623013500040081603 0.049252251839115246401 -0.1044123553039938701 -0.20458417497360098514 0.27363642400765264551 0.077411464525556028526 -0.85242238925842261921 0.096134563953114149371 -0.41170310376267360564 0.40230465903210199663 0.57832835891498934888 0.2632565399304029885];
  
  % Layer 2
  b2 = [-0.67130259634908040489;-0.76399028037457261675;-0.38038423991700942572;-0.40548176635497057418;-1.0724210439135950512;-0.56428686697160368446;-0.87129580246730664594;-0.41867782449276269574;-0.080439898709496526763;0.44417144464893576483;-0.74407258411303911494;-0.076930371984447076805;-0.59912123085507085207;-0.49818599808383190464;-0.38715134089699820841;0.94402101561915308103;0.98614529262960270994;-0.39565269449767437315;-0.091251170928143832128;-0.90205017514198204687;0.8707589644273644458;-0.077901130638790672123;-0.43467818568672422774;0.1687092572695036985;1.1656664723572420783;0.23065209045642354191;-0.30226677383198308213;0.43911007319321143649;-0.69962147491978221581;-0.75267257116102792569;-0.96225201664442661098;-0.64944099923476017455;0.54635445078727773449;0.13806494923440681966;-0.72779781601598791951;1.4137024974816607692;-1.0592630185747218263;-0.74974914770827494337;-0.21071558266296963602;-0.35066927995838348409;0.01426872271172063833;-0.842709316540658393;-0.32481314932511007321;-0.5256835109811700546;-0.00015548055481651168463;0.29844167799320731049;-0.11010025120028443801;-1.4150217783188518972;-0.024567148766711732755;-0.69657162961701135639;-0.83336028509788784291;-0.37566375479499214407;-0.29346925820990166223;-0.82257755752506378499;-1.1942854556157191936;0.23980267064239124686;-0.3412525665784578166;-0.026888181008016542872;-0.37881075115673701337;-0.28719458391384600215;0.11330369913111693059;-0.46117366734643672199;-0.54287865892844200388;-0.25409631762057571791;-0.053048029801813334494;-0.36611611971516011543;-1.2899904053858803898;-0.83181209914344356182;-0.65184269535753780467;-0.028018166291086776809;-0.45916456572370156763;-0.33311770679388730265;-1.1506169098693317387;-0.060522480009278067925;-0.016044668153182006787];
  LW2_1 = [-0.15679774329628970442 -0.25723446241880254526 0.50182203682274373335 -0.63248518659201113934 -0.27224784918690309032 0.22769190067858902093 -0.4443030217889688549 0.18352941488916041379 -0.77178458518167158964 -0.42977015322281753029 0.19268900474413275248 0.23281977232348405327 0.23082615714543774921 0.79974684217896030436 0.076991537208380700363 0.90880443793863685542 -0.50783932059051728469 0.16746815011178450838 0.061364286525446898324 0.70001958281517884242 -0.079067620543358418939 1.4593136308652892019 -0.84875274275730316909 0.26109307165368000891;-1.1905645664898043545 -0.27679164762783914355 1.1103284891656521882 0.24901598946018554948 0.8691126570226735959 0.23573143521047978943 -0.56194456674403969743 -0.31811815099058482481 -0.35548429558532290695 -0.36497725253035384618 0.14528395954780326527 0.31300531505556716816 0.31907393406385287093 0.28229690409145724583 -0.25005203688893856695 -0.33827667776811970457 -0.080907171546065359546 0.20047974944988358748 -0.086331714615607457741 -0.25145609805689234095 0.35689198197493365861 0.2470114994046184731 0.21682411774165327722 0.32471493680830554318;0.27748436715057284152 0.14182732707250411686 -0.83389326186946144404 -0.054021305580781886491 0.44182625743274167585 -0.30441374496935741378 0.010143108964059802113 -0.058402215959006839596 0.51842281929312772348 0.69833109545816807184 -0.021194731389247656317 -0.32061093396323769866 0.23042897414751228879 -0.077201277191766171093 0.3254864657729644728 -0.17031398029756578127 -0.22332827796140830579 -0.61094470818826684955 0.61952158653965982982 -0.32044916979602200424 0.64838591418666102761 -0.027731166060024126097 0.57069580425128574319 -0.24475359797859241873;0.43700846084598832242 -0.19881057988174477558 -0.58285630180742065143 0.46357079452359895022 0.71205135615371040192 -0.10157072482085649501 0.60303019082678721574 -0.24105659609135343668 -0.10513840506929778007 -0.24631029574848001262 -0.0136936666873391788 0.19738902765544552587 0.22168893330989325463 -0.35365201731178080857 0.015214634856572650801 0.047231033537314837112 0.10309176556062515928 -0.13048870535707443596 0.16306685055156522335 -0.27245679043850706824 1.05782267715789291 0.088902179785485868635 -0.18037541545609958593 -0.72525701799364905575;0.33931056895612526914 0.071479766739838135337 -0.83854221521857141841 0.35843119128154810049 -0.5343112240356335807 0.22089177949646376931 -0.16627267588737315585 0.19366903313362016092 0.29491016884313336899 0.029321527675838288118 -0.043435666103243952829 -0.45146937491868199821 0.38518612207760249966 -0.28379819468512823555 0.7488380519115231948 0.19261727718474019877 0.16793981793885190412 -0.68305849966454235123 0.47806938304015289543 -0.42976680255382571083 -0.0051203823877678522614 0.3325392182115702866 0.41928216739287138548 0.14822596693593809158;0.95106483250097895166 -0.50718836853847615309 -0.50619631942386622558 -0.061076508081464253586 0.011943445522353601795 0.17560264923085924793 -0.079102295352532270289 0.012356476535247670756 0.38936206269843509631 0.16849590795771551832 -0.24816797403270962619 -0.19760623540901142703 -0.055759421308045453713 0.13411760766609714945 -0.3304734039705125026 -0.0053425152957710109192 -0.0766876881363994789 -0.10813138671778266264 0.27974737746653199899 -0.012718062792564044372 -0.16261592497666010892 -0.099806309295806694415 -0.22917232714025304041 0.54503700658015308278;0.66820567438131406313 0.090079495461024061687 0.19230433322605100521 0.0082472542609417498483 -0.76663735702856194987 0.031985636113474269493 0.13097972079577058224 0.47306687500355576459 0.32282331983814560594 0.80817807709601230393 -0.17121564191930743748 0.31222787767399740044 -0.027202786479539359243 -0.23435023799607074269 0.12357384080503852619 0.4890918599973940184 0.08905682210610699201 0.53896513629241027399 0.11027102180062708925 -0.14490364286823964601 -0.43222936393004501854 0.40075328583970765139 -0.1107198598362408859 0.45437397247516719823;0.49907499266648203129 -0.23917985445144507306 -0.064998739107136049853 -0.28152223342921678384 -0.13693376101112775256 0.27915275682153956049 0.61564805047044723896 -0.37851782369274161733 -0.23285594114663066279 -0.28002448267915625024 -0.03595784268087223734 0.59529897509913876075 -0.054435634913119257394 0.42087608200350207222 -0.36545682885050889688 -0.067571557281841054809 -0.071778504482299054779 0.29186920564845686421 -0.60730403236564600711 0.10124902547922592921 0.67802594098720736504 0.51567715798443014563 -0.49327513214074225623 -0.50550000921872284554;0.00263236490413021329 -0.34144433239460258989 0.30655212792088493146 0.46615077692024076139 0.34210001766856457106 -0.63662585896830770071 -0.29682736022207212301 -0.32249533056282186916 0.13059329572735151048 -0.48648980924080165167 0.11046080594946783293 -0.23914433359831499537 -0.10293001942405213822 -0.73493026554149520901 -0.55942992276948599883 -0.43729410581164751548 0.19592987594715624566 0.3055828035057426284 -0.023332676110014965998 -0.5154825044841051529 0.23136810759513803948 0.28779795647565198369 -0.28519463046543402918 0.11627877358555105403;-0.33526766893657816704 0.14799315018468806038 -0.033414905679967521479 0.41188022821317588074 0.88690717005314256838 -0.19531776386927218736 -0.34521187421188037625 -0.031185717089197595442 -0.24207073054559158365 0.012145495613964579773 0.017361329391901381136 -0.080376792568153554441 0.16115128731342442947 0.14404431279248569586 0.090113548050673425438 -0.078813237672111569054 0.092516857415341602344 0.30197535079213533304 0.16397216856396318319 -0.38433480395096719651 0.41664890760786277291 -0.28598045336826161122 1.828196136183860343 -0.051707810434504425379;0.82936212632051553584 0.18411723902094234706 1.3022056745267185374 -0.3761230158815368485 -0.098370619234839029588 -0.42321698635802890154 -1.3083570577255327905 0.18097493593189251104 0.090469113864671324432 0.82457925206259385931 0.0093746678435622232683 -0.4918942342132086587 0.15389876493310716832 0.94842650616728285673 -0.31360134624679125714 0.3216588029204643373 -0.022809953482599731878 0.45553491537023849123 0.43362067121524899838 0.14275432220176847986 0.028046073084358247307 -0.23250101671475031928 -0.38483598943365687761 0.078936501628166788613;0.37291924296437040098 -0.42116865425565597203 -0.95207031307336764669 -0.35257437632122123894 -0.17252391769629465967 0.096215623670411032364 0.61496527161106318005 0.030028801947575733955 -0.029327827001977446741 0.014870207033218063586 0.11811454734667156674 0.19242901900768721868 0.13130482506209562032 0.0731774463160219657 0.43498385789676319302 0.084905662951780425107 -0.15551591751630705618 -0.38277374539386754826 0.057813709485324160653 -0.1414554237786047608 0.003592485506148546115 -0.002332206998272190468 0.75529940890272639908 0.18688297532993447536;-0.20685530622159653547 -0.27140206885220941047 0.08530909472541958749 -0.39108584143155955548 0.19428074148292351353 0.085892888104189490939 -0.47587664151403885615 -0.17982765326668104233 0.63766390921601656672 1.0084310914922207658 -0.16093852986238765812 -0.086410966103147801576 -0.31561192415102806708 -0.10140566770279191289 0.29950526935530641381 -0.23685573259902714671 -0.15030067352671216963 -0.093711850484251763005 -0.07787443790902393026 -0.16035490110924505158 0.16519605952837618235 -1.1407029965398303162 1.7491628601929245512 -0.1770903962125868758;0.23328515818101891455 -0.24661074894849388528 -0.75223957841079691633 -0.22218122920966187905 0.50785628476953892374 0.43733866302156859662 -0.16483750278936978861 0.0063210798490189734622 0.045607962696979864603 0.56646885684838577113 -0.17660689913798094386 0.088783808004701869621 0.0048075706057848499597 0.55435297442279252156 0.5061979872575204098 0.050123915394504364729 -0.3899265380662226832 -0.29633812911452916961 -0.031705924177564126509 0.19240327196089146433 0.19171877341470289213 0.16326906446997835332 1.3590097895998516364 0.45045953173674768699;-0.13856441838709510073 -0.020878633778445454539 -0.78314724637793919904 0.051160155071458324194 0.07675417727155636749 0.2736000170830023559 0.2856107831329740554 -0.041524677453637803826 -0.06682663994508519778 -0.22342235144598943108 0.21107453962940478376 0.24948682219788798076 0.087086062550798815085 0.16280794178945051653 -0.1146779966271088691 0.47218434811150022945 0.060023341812005859275 0.14699938950611746158 -0.41102269977464200856 -0.17104071841555834599 -0.46183769186986523003 1.0027738223545601404 0.287134423331628863 0.25423333381112378504;-0.11646068422489030958 -0.19015677781767426069 -0.66684240533936678386 0.46097456880108045318 0.81613451502803691096 -0.6131589579385547939 -0.37176834531053082333 -0.11847954545045502606 0.31977697017298478688 0.14346103870741389041 -0.030015089896417435078 -0.66644507895870475078 -0.13525651621609707798 -0.48004710213284446096 -0.34063867479147758033 -0.3127740654095811923 0.00020876939289649065756 0.174410157067103333 0.44547133474482381033 0.44063204544017592346 -0.58961032967162285701 -0.71781069498611715929 1.2254755920852384854 0.14577776970078290542;-0.47694133349503864405 -0.009672807059903698601 -0.94864085351808813407 -0.11337342549573659056 0.90716401378978794856 0.11466272442730834902 0.18503514295357126329 0.32139709619689516007 0.073575626553369133376 -0.32038334528565337589 0.019414163562525177387 0.69148324459025922728 0.48769729021240804112 -0.57994123324582069756 0.58338288804791105235 0.041520117659107569352 0.093566887780937912922 -0.38007024054252852574 0.22436880732259678606 0.25619967876927263184 -0.10127388327110031785 0.5863226447896765503 1.1164759428574424494 -0.032974813304427863514;0.63871006217911019398 0.35543135743405890326 0.053613435689003674511 0.76838524043179368128 -0.54039543000573542209 -0.37626673752270878293 -0.27409520732009323707 -0.47525934159794197553 0.10420653374880173292 -0.11874999651883549889 -0.14361782141594489626 0.26275582921547779858 0.07776206879068026101 -0.60729097237203599757 -0.44529567800374070252 -0.15516001564488657305 0.53471197461232589099 0.64926251195474549149 -0.13925421915324331934 -0.14629478266448470158 0.10654282990565255851 0.52001884417711907727 0.58901225319021088822 0.34499480963252077137;0.62010308730159335866 0.069090463898674014942 0.53152325595074279008 0.36378895609588046689 0.10150740221622578385 -0.15986477576132021583 -0.09287664851461285842 -0.4618712288651867226 -0.27966463784693018635 -0.44913555079115163871 -0.068099577823116819175 -0.025648102159739415151 -0.10738037777631515013 0.30715707017724502847 -0.33316628901169176302 0.55595484434846698107 -0.11269470813732884729 0.48754959840046269148 -0.17847240468439717898 -0.0020891977346737533594 0.53548764256987779753 1.0654329771775630231 0.086295196083045033753 0.57889719376285153629;0.0016101701020647674056 -0.15509581382390691395 0.075900605433169343605 -0.29983358065150089722 -0.042835088343532223831 0.5046055155564507233 0.25175826027948272623 -0.39605308038027597917 -0.036676425657218986176 -0.90288698894868035794 0.0044002579593273860592 1.2219872725276819114 0.49154435879332725179 0.17944914139821932508 -0.081293033220097871139 0.38178406354280741697 -0.13241105612363091026 0.037393829422665059159 0.22098895799670961737 -0.69204790210237132619 0.88756807745190091641 0.51623739500234633315 0.41392362917029912328 0.03718567699061614551;-0.58771326476591712051 -0.30499465946577353215 1.1167461227636863441 -0.3040347566016624592 0.61073750748472588334 0.2177927229048450819 0.10931394288116424995 -0.04729996774241940205 -0.33500409053988189356 -0.41917676573489209835 -0.17716125459425169364 0.72039096341267927492 -0.13087437481714239706 0.48823501137743541278 0.10892106448448962697 0.052725508688570732474 -0.40414836107765367279 0.12457845869573469511 -0.15386703265065149182 0.44441920293020859001 -0.41899364604808403412 0.28826229240087586358 0.046329807724895921694 0.4838420993566082684;-0.8556955999274757918 0.064631530007828730255 -0.39300671805397302538 0.014871294572529336619 1.0617368522953338772 -0.35354439043030416734 0.32469962648870948074 -0.73430544213855042379 -0.14556415504392661298 -0.0098946679931267711439 0.10846628056196472301 0.19684352180515315989 0.15682769951061881208 0.60124803684125704972 -0.092653110960942530738 -0.18182135539619836972 -0.32545142186901987458 -0.11356298855556179461 -0.14624259175657405851 0.060526213594142952434 -0.29440238157271847452 0.11052864605630846606 1.0287759055766152461 0.31367909907155611116;-0.65705955197006504775 -0.33736646957588889428 0.031635793256699296094 -0.31728549743954237439 0.1975947194417134456 -0.26868255555855047323 -0.44592677019814086492 0.0470386542172129829 0.049815842859075698534 1.0514132660215202986 0.050450408992588680057 -0.32293947827318369992 -0.21713933768453219653 0.16098617796128855684 0.013488404138907283958 -0.97559622636289855535 -0.18450781784867070767 0.039308971708892914698 -0.14126305611769418569 0.3830882143443871124 -0.21256669644089298821 -0.99041084677259028091 0.92059207959830269274 0.083702232311708535395;-0.51148197989366539495 -0.43232727831785178196 -0.92043015027614605295 0.39410109736838327965 -0.63428997289415500749 0.33217082989953899963 0.15365015399016346276 0.28702364646841060924 0.030502584227081408486 -0.61159709584979649044 0.023351169002785832074 -0.13853083043495673099 0.21889809895652939664 -0.54003428740286318899 0.24167699622600574694 -0.47420236837678064745 0.20525826201749608479 -0.26324113458394737819 0.060046613342263022162 -0.37868552219336093501 -0.58299751305559432968 0.37208448335394023188 0.26152039480089550594 -0.062022423624777944795;-0.36254789208478199747 -0.69349721370768002693 0.6142629318657533144 -0.14716791730736344945 0.59082049370158717938 0.070262493600879438738 0.25935146976850065315 0.42389495626911094517 0.037028613871185833695 -0.30728636935939657171 -0.025946519428603376234 0.081658721837890857476 0.03476175227687325342 0.34688637374637093513 -0.34713279509103778242 0.0011091340119706583067 -0.099608019493057087246 -0.18676374266876527575 0.10701607773842550242 0.45583138730611727496 -0.1075295128823786639 0.045899607720213120299 -0.044889674201065932202 -0.0013727619361845189161;-0.57942581127093228943 -0.16835476053061740331 0.40485637130580781617 0.031981896989472624604 0.47746680048425133025 -0.065087426657369940042 -0.3224021570899489042 -0.036345201224618872704 -0.1053106514152509221 -0.89860493542884456453 0.28221884386529988431 0.22595670207320778244 0.10226418222570532457 0.0048866386483869123092 0.0023628807935995865819 0.41785323971129428866 0.24509921413603397156 0.26657113082679184668 -0.013960622906513675545 -0.19446613521332492547 0.22644167587828381571 0.056134490239975118331 0.99444536359739132969 0.25527710286630300729;-0.55560174062066602918 -0.11866199846461278344 -0.49200378040767650534 0.017944838721916850366 -0.15446689460011403527 -0.36557791591091792771 -0.7761202006092787764 -0.012795690680077916046 0.045947370289912137231 1.2314811222149200098 -0.0030153209155475702019 -0.57092242147240113148 -0.24968636610645503215 -0.029081743924402658763 0.38896983215639563403 -0.52696519737223468383 -0.42184568453607618199 0.13910353015455761971 -0.090961737976340606426 0.18638864418598499739 -0.68527142633133020233 0.69561555397852370408 0.86142820023845056987 0.48448895524970625459;0.11428892756779274187 -0.47705333997073978702 0.74824983304522096894 0.37310935270842104927 0.19136995908514348175 0.32872507227215597148 0.20082401280328232573 -0.04763202225407636714 0.62726611101353568767 0.22634433121440389325 -0.29298010173032990044 0.5877509821553956737 -0.55341820477184633376 -0.34364720666271664218 -0.045111972358278407125 -0.321330041219174245 0.20561817129441861685 0.27501375710949504949 0.10275708182730547424 -0.43256973352682553946 0.037008288124802862784 -0.2563427595745316756 0.58206657077111700893 0.14823585112184584078;0.3548235918220301599 -0.44879900726954102819 0.15994190601516450334 0.027010073794316136198 0.18663571590267885592 0.15074135124515902762 0.0049138889831469301228 -0.53305681162512319471 0.019608620583701052986 -0.44254497864001046681 0.13130920540067952951 0.27736208411782903305 -0.12753785027427499976 0.14895269968750524114 -0.25533622870799199678 -0.24779297363157715139 -0.11484078140183673344 0.1097283409041290847 -0.31337224266826446684 -0.1937630826249885363 0.54616145969480112132 -0.45473680163139990063 0.36125970116879374538 0.27643345629644394679;0.0060778058248914801354 0.011705779540897867652 0.64014671281984580897 -0.0026433337341182916447 0.95175028373200876164 -0.032883129090747947876 -0.64816163440492435832 0.045913338084930532812 -0.27020650624651265659 -0.59743665601147877275 -0.24780227503453594595 0.37149284736740928459 0.39165124542295104426 -0.31743401365088808053 0.21836122883464323396 0.41388992477043129448 0.14750838308236968732 0.011324298719648018263 -0.087159228751521711231 0.69085838590938530857 -0.20678033959954461585 -0.61110746427432616201 -0.21117136307231865189 0.78141709840528172926;0.59212971838787209489 -0.26868157981954621238 0.89558072982969827436 -0.54692627483779776565 -0.69843973222943500634 -0.23212529397567527312 -0.45015676267325843707 0.059952154803687374152 -0.27367111367326080185 0.32853840051266991473 0.36148142063208310582 -0.28139089241154785492 0.25599578660530908358 0.60220909085785290227 -0.2058983511455297899 0.044281772365304283845 -0.23450842995859530471 0.038590593051234023392 -0.13097416969717973201 -0.34754601395783546458 0.98598740815162400075 0.015186605364784666605 -0.57540400384654410981 -0.51802059457694715761;0.089678269299662383141 -0.4652147930982417634 -0.49599921188637330349 0.14257155359370116132 0.47423799879010031244 -0.10251610951003020666 -0.55780563510919467518 -0.25351249616466886572 -0.49314946371170953476 -0.37207977822586502104 0.28639093039551000164 -0.83380343747022866996 0.27826266261427201609 0.64209213629869643647 -0.4188542953379837952 -0.40664208758505870911 -0.37838833191186438398 -0.08939150957400870956 0.090515191438490461007 0.075201632052025513264 0.21239019505167439084 0.75139438193367869001 -0.92325693562299659956 0.37042079148925999288;-0.71651557538351273724 0.36139215751459730086 0.40714185212729747665 0.13639008105112071512 0.52879899512133499151 0.0085043677008382889682 -0.10131809674723291081 -0.1482494739193728206 -0.089748214198634657102 -0.2263488382064390847 0.31028459723479928645 0.36611107778382950828 0.7081039758261093997 -0.41593861904172901856 0.41257409635920083701 0.2110111879522966194 0.31389070548278408257 -0.23571533429819258032 0.056203157839451289846 0.01812797014799183426 -0.1695692735972014753 -1.0104132695533196706 1.7784339076058539586 -0.081070025029160108776;0.36397910665774890759 -0.10482905944217923988 -0.28496964069418939669 -0.64952945544001361444 -0.28710501644752139949 -0.1964463998212036544 0.27831013026082618289 0.47580992900842145055 0.22023958329518877886 0.91935265275344690838 0.34359452041137039657 0.43329232534294787049 0.14183490276367810567 -0.23199196596708659968 0.45190924145858424321 0.49575351151300561803 0.20913075153403881679 -0.17843280760112506522 -0.078574519608431314666 0.36149470486954510262 -0.54882804506875970674 0.40070048290775439614 0.059090807541601342301 -0.19308785955992691097;-0.19526115138673116878 -0.34653505947116758357 0.83226704886803559713 0.27133106296080922171 -0.13767522263327103271 -0.054813474271709905494 -0.14478760881490426726 0.80466962448543299935 -0.057120875796515147016 -0.097078591968753791264 0.18316404712291989298 0.65660126417673636556 -0.00064055002296437013598 -0.56751910159056417893 0.18216628456761113641 0.24792066268930618156 0.64298576850996735921 0.51957615301566750787 0.4475890744956917966 -0.89855450459105368211 0.90052791283305666514 0.84053240652442717806 -1.9119861383400711397 -1.4490254707658525302;-1.016886510068593541 -0.20195604761450824949 0.68175702586864483923 0.34562693328422344763 1.1011295822335092076 -0.22053751601051613251 0.31742943348447039131 -0.098679254098753305113 0.36058602442278031575 -0.53103835087729622799 -0.00045909260103627058669 0.72769071346986813342 -0.033643904283167325175 -0.4648331456800194883 -0.016451387901187664031 0.28447756223732290071 0.10597017407622835727 0.080908481016526367924 0.24636942718351423354 0.082707183256732097476 -0.66558047511377305128 -0.43645683818963287859 1.7032996224127314733 0.51027785713326379025;-0.31566983030260242771 -0.30702679431071744354 -0.27693290765911904305 -0.70592531408570469154 0.91169404683431731762 -0.056678236635113177222 -0.78480784153974658679 -0.15437390811848139549 -1.1092739968158107366 -1.0408892970740306616 0.602706900416654201 0.087731904003020888538 0.56906710540260063702 0.8546094866517719435 0.10391665114906456502 0.15624057512458702779 -0.33556137378747630251 0.033753742633899963543 -0.22285744191674883297 -0.28851760585365093803 0.49245746190965261624 0.74672153055310408476 -1.104770738503995986 -0.20434306693587950265;-0.74071411615427329433 0.030507428672571168526 0.26758041387619602158 -0.15047778445843784656 -0.10295336882471894935 -0.17941085670546841335 0.14694430920513879002 -0.6269956183076113021 -0.073535789469274415175 0.40205947457478646845 0.35446092439852017186 0.50405109878209497509 -0.4250992515707016639 0.90080689502376365407 -0.26383063439283693796 -0.048546718623755480415 -0.054445256650540896359 0.89965849675166553734 -0.37940604447164671953 0.1903857680651043216 0.16155008318868765982 0.92448569319797035959 0.49883531102890521503 0.15313918889601385587;-0.59732928817471897531 -0.10545446377119827019 -0.26913899362259280368 -0.52933418247505170662 -0.86178084765916906917 -0.028891683640261289767 -0.19209079160512315676 0.23998126002894937248 -0.30157256859014469619 -0.49826242113398233613 -0.023713804760793877335 0.43064719241826676654 0.15493108963384782939 0.57452688592862766193 -0.47208942880301074663 -0.22786191068800154547 -0.10719282075428893108 0.42555578904087537628 -0.31454060122424132295 0.07290085424501924205 -0.47704102663279479568 0.88592191728838587395 0.27212906226800026577 0.31094158791626558269;0.6392931594636390713 -0.10287553430378193475 0.72708702870921571026 -0.008595295439607880672 0.21456144289940179415 -0.046692556097374771085 -0.83724768521676418143 0.26485051466770354045 -0.42052068985365842479 0.020034560633198500446 -0.26725901748572328254 -0.58470857979340207233 0.33966072199829389078 0.41500264949070897469 0.04787448611415545674 0.21809931489124817494 -0.40618530162846810949 -0.16608906546676716065 0.29556406459817197163 0.6195092586453337935 0.047349041852131623642 -0.24891482676368426041 -1.0992987780921543717 -0.41662138120792813201;-0.59810509496498376336 -0.29908357865886403548 1.0558776269878151766 -0.2139661513280683991 -0.36609479408722100935 0.66438789962298616665 -0.32165286403294551798 -0.11309524451733909967 0.32581447963096238363 0.17807323588050549823 -0.54600834128340602902 -0.12233512036726856831 -0.22292740967378432693 0.4637902675789393192 0.033886163225498866503 -0.070369395642057283591 -0.42355252788595748603 -0.49263679196534748694 -0.015860745225362904431 0.11064153968870747702 -1.2254019160271201194 -0.028215312733342434726 0.16294820390404790578 0.67469482262795577032;-0.50209551695140564043 -0.20746140663029466467 -0.4472004033652510202 0.38856076626032298726 -0.59157690256800554707 0.218214522797463506 -0.2037165430329153093 0.63538449967671106755 0.1918897833582774437 0.17448750649286592918 -0.28799433771403865068 -0.23262156673083556058 0.12843587721551075198 -0.54916518560599847376 0.49946899657701715469 -0.65781729954579226671 0.43143370410603842924 -0.41458730488459338837 0.16203231661093331351 -0.2991976587156794376 -0.43312468849966379025 0.34828255090175880282 0.21909027385803292454 0.52132154162338584236;1.1237037245329986046 -0.18405207845608240191 0.20646441644597363085 0.52938208754774940257 -0.89775011332028742395 -0.072306762236318378179 0.61697055278234569364 0.44350356452088224302 0.37668383971277791256 0.94326877526912900063 -0.16287960275859419967 0.47053073369553688465 -0.23000255705178429544 -0.31248604961355253007 0.51723220311357187562 0.44607258007828942681 0.12601294811795360484 0.00085525794544594191393 0.50128454749074813357 -0.062924186155454031599 0.79296471309762717183 1.2034334635649523992 -0.75569503640586699333 -0.424160481625426522;0.16528643406931420312 -0.13370275070365744696 1.4059277525498767858 -0.3655084537750874496 0.13261437042840973355 0.2965998105321125955 -0.12995912895312367041 -0.21546165674625883391 0.1983739602589713602 0.63161285565587443891 0.26237068032957744368 0.54523557035801584192 0.27890509284513365085 0.6565747278137273879 0.27442592575404828326 0.36176304368425538094 -0.28154588836699900867 -0.10264867389631981975 0.23553367114194484477 -0.33170096193054465772 0.76391664391597546846 0.35030779377151866072 0.31607544808495263711 0.39281681234923471191;-0.73465428009562294687 -0.38375398090650392202 0.3492373072360455688 0.74476975273150558543 -0.046756047900686659169 0.57192829490396390746 -0.51482630404328511009 0.96381629353940478921 0.46023273031779377007 0.78604003810569045285 -0.40792401840640674093 -0.42741233286855839779 -0.034274787251862948168 -0.5687346749711735816 1.1781717163918192792 0.17727857355757159485 0.083773978944422511361 -0.45417688584644561045 0.69521885843622643897 0.24792453588026175382 -0.02302460375295523054 0.51792495659880566361 0.567643476939323266 0.27540710135838847306;-0.033349353666151215769 -0.38502020213887688804 0.90830193232390232794 -0.21746497641784462429 0.51984204676350187491 0.18664704489826000611 0.035387784872559668869 -0.2372097656947000921 -0.062398549242260514802 0.039764201496891304899 -0.19330685438055938974 0.4770029275492523313 -0.22256873380738251278 -0.021928997396576610512 -0.34035145824181506358 0.29102025960355848433 0.02986506995148782706 0.35963312352643561631 -0.80709945725268306127 0.55272324741694078831 0.15665418900522731782 -0.28239102643498181777 0.17993212768749722308 -0.13597441077211103178;0.2605126180975051442 -0.25266507384851744078 0.80546653123143308051 0.33542440186649852274 0.74503389349674775666 0.059157061559829970943 -0.37593026698642312278 0.24475504001475034688 0.11511004420942350102 -0.3093808364561730917 -0.27875185410632397076 0.20560229538339364064 0.33375255425174121804 -0.049993936376304670688 0.39489008278851434053 -0.4186016238104954823 -0.21891804217282617717 -0.38827607091236743253 0.87985241414313275499 -0.35246515141547729577 0.21187896175197895587 -0.69429007240649021071 0.20066757642638194392 0.72117208652320829998;0.75086602346367892213 0.044180956234013565864 -0.51839804635610042816 0.36464101720055264177 0.46784275406309461243 0.10357941190644814888 -0.38314577870287458428 0.57073537216914527193 -0.38482765606417923543 -0.79088055525588862871 -0.17933584202883667835 0.61292041926224449799 0.61193291067427058039 -0.496394433101567778 0.36939946314199911814 0.44142311972009168342 0.10686803126949850906 0.2985660304966879508 0.52000768694594801111 -0.094933099317815461404 0.43651452692682357615 -0.021732240646175515764 -0.96409767792400380415 -0.16200641078383543059;0.21716422525221379392 0.25786744044146292509 0.0084075902799807256116 0.035621646971697229489 0.34074890046752615014 -0.089723065281020031314 -0.030116527297163797616 -0.17548235438669748665 0.059588833908182259336 -0.2251704435883203903 -0.18820779064377790579 0.76869102211074646913 0.37645494078813634964 0.12692589737547249618 -0.13870730036436995647 0.66054476796063332777 0.22151932232539794931 0.26096784783465531987 0.10619599064026430391 -0.32350958054768291783 0.30924679593529347255 0.1192512505156708702 2.131317988171612221 0.87394709302476725199;0.54782255285650027776 -0.38061549269869587864 0.097566054272079649756 0.53868401179991742822 -0.41727580650122303441 0.43864270383785697316 -0.10974270722044443538 0.28578142581616960971 0.17090578407919199133 0.18428851811808910632 -0.015419617140429831004 -0.22103942216805283483 -0.05491348915210902959 -0.16562962360096999959 0.549193678788788886 -0.19819687415240272443 -0.044274108037573700614 -0.37172362072851211634 0.4430118208866003493 -0.61356042279416056484 -0.038953666115041807316 -0.40037746296909132449 0.21558363570830996192 0.17230086729312965588;-0.63890328613813684999 -0.29838702432640046291 1.0372949483900306689 -0.61172076833226451953 0.081658368367502176532 0.081520712551542445778 -0.20007106406415159361 -0.26220464331711346162 -0.19828118769306035674 -0.18575452282132839943 0.30101262340341727874 0.47043403605812478263 -0.22850023796569898793 0.070066052729908068208 0.25485859074184702422 0.31731307408253123237 -0.019995475602209017429 0.031055510513433359776 -0.65285117355027266761 0.10182796111915121129 -0.02995659801423578017 -0.99212298923140307405 0.32102333649924430503 -0.18467195516717649362;0.68549323320056676501 -0.23760957146380523586 -0.24008498653473964168 0.56600102460552448314 0.1118483025769687611 0.26663422828332300485 -0.82871982574095981455 0.60688614492380721366 -0.041662989717274001578 -0.084943761395356087718 -0.057015520522939178161 -0.092108623897533103975 0.14483889993432824683 -0.3451473007122010106 0.70082607343447034243 0.18679170432738362306 0.58317266332709505328 0.18301692805325975311 0.37722112194903528737 -0.40073478979578536219 0.92799280532664085719 0.74013941816614969849 -0.32487101823599684458 -0.40875369754678375633;-0.90393496584053623089 0.025604281292206598764 -0.53090862244648073798 0.38180700990899174574 1.1876454565874188241 0.11439672294754127391 -0.0032975362811068498203 -0.9433080448059548706 -0.15242987362543458651 -1.1852358813960111039 -0.19987099400625618628 0.30938950016480037952 0.30585094905737642001 -0.25828799421311510187 -0.19405456496171435976 -0.90233425871400096963 0.25107229376313999758 -0.19111540111158009658 -0.50084506391030725325 -0.11329502201548034834 -0.77364198047937238201 -0.026195646633064395559 0.26754517130548338688 0.868995244990431015;0.13336844388062119027 0.24760025809890950921 -0.11648092741953153251 0.12654197034170844294 0.81820451593741916341 0.15824274091958198674 0.49956555183739281834 -0.24411108272078174686 -0.40313555858306027169 -0.51175201095593236822 0.0017335796541091408329 1.2089639187289733524 0.60142049855582213613 -0.17997300123975440433 0.50610670081699948852 0.3236048659260557514 -0.2956126072882770961 -0.2511888609981799414 0.26310587082970199324 -0.15380963893205679138 -0.10794678407943938958 0.23449601701842437418 -0.39997703729733435907 0.34654412155048086586;0.75530832490117361111 -0.49512642541481555192 -0.63068915606998432466 -0.33602053179628277313 0.15223155066854943129 0.42906257877541170709 0.56966570623827594844 0.16822388928779274941 0.020091594377406929439 -0.41964067974482471834 -0.1596790024905533345 0.29626081370190071596 0.48111047593929445743 -0.70849417077701482004 0.44244972532050852454 0.22466830392627501478 -0.13897030797216070042 -0.96325694362715730268 -0.068155451352145041133 -0.33806659688116635909 0.016566373757820773704 -0.11579650834310784013 -1.4407671207816239445 -0.12450664298450123124;0.50231460440097996933 -0.028319415348569021429 -0.21155789194815058374 0.46344372795907184948 0.087032199539536586608 -0.081960000720000758534 0.48811104168083818688 -0.38154406179121114207 0.14219984094354931603 -0.47992150441646863612 0.21719941414314736239 0.39079132824888146436 0.1657194655743194911 -0.19932874222683330534 -0.27326490586653817694 0.38726754424877418703 0.096662984341888649742 0.2385621801957831245 0.10351209904645242155 -0.12572337463316574091 -0.096729520594478035633 0.45668081603907656474 -0.15760418441382317845 -0.020423658457259019627;-0.53442039977159128128 -0.40649770032198395686 1.0871969687485552036 0.21574640848295889572 0.0013522344217827830803 0.21199948878755867088 -0.62324764285618683424 -0.28849889655239813191 0.29195141114396078175 0.35196913782055427866 0.015456360050618289659 -0.13716880546971516042 -0.43486224269037199175 0.20621370028402358221 0.23604696092980348432 -0.454065773548019469 0.086886708600051043572 0.087977655552277891915 -0.090077678282723339098 -0.053635338660330766913 0.2597443380299804816 0.70958671406931239645 -0.0096057925257380105677 0.44347065197003687764;-0.43764920289376307849 -0.63204997476896052078 0.97566699623544894671 0.014436334752529589309 -0.63678473947046299042 0.21872530881752261234 0.25474958279736437117 0.8292764412894519932 0.1598968844714622195 -0.87629524513198231439 0.13885702889652118408 0.69226889120610202166 -0.16905284832387135197 -0.03149681065883336295 0.014067238352758915099 0.7091107600619912521 0.40095148533136371061 0.32314349601826064529 0.64850660527953940537 -0.11607314777568988884 0.98734614398416253866 0.25973475393502332143 0.58155481883679427391 0.29214554722309293844;-0.35678651516449605419 -0.30961346755784291407 -0.47872043372788658511 0.84421944064481913017 0.27213744277075091471 -0.15661580506330186058 -0.15497333354567388586 0.061062303107361687315 0.21866722835457841345 0.88532691845046718182 -0.39764446288435628674 -0.46439766428758000316 -0.079885332222801030966 -0.57581440945723971758 0.33624244061978780795 -0.70956838011868172966 0.039824865868521713841 -0.39529054060724144737 0.38929205914547670986 -0.47786540183816350602 0.05747532901999372057 0.076097789197751841694 1.6503965013048726984 0.56328834327669430326;-0.39107446073523610686 -0.07998912424873788618 0.91622529674477470873 0.0243726511455997219 -0.28536982825276002718 0.27717419375166962858 -0.48148332095886453574 0.44446132069130728226 0.10180655629158824604 -0.13949964580677282067 -0.49350001907650370425 -0.093279644687379092982 0.14798642493762725891 -0.06750220821469621324 0.36080856064914257342 -0.41011213601148516217 0.08683345699706013221 -0.76818992172997735413 0.30663057317851616368 -0.55424246051012071579 0.27358509263426589175 0.61466049839213288131 -0.61608320711425101912 -0.23604560312168143543;0.14725484206724059888 -0.12891587812793794954 -0.94293691340355478836 -0.32774956015858291991 -0.84184053400482450336 -0.051327717440362019552 -0.29797866596051647559 0.45350397739678005582 0.51870728746006000698 0.93996594283572831863 0.093551185267625625031 -0.71977711501139074457 -0.22888667288932040833 -0.17346757579741045596 0.27232836103496049773 0.10157984870938344124 0.14077697986191350932 -0.037437044670266428348 -0.066417780645255386496 -0.28367568936063952689 0.42816810583240461074 0.75122432736828803623 1.1501324170239131117 -0.56304251007838090892;1.3285304916673617015 0.031006851323701956069 0.98679380128741889244 -0.08255934316537694162 -0.48275573131752214096 -0.27981683251494171571 -0.39438728647490611801 -0.40681999394959733607 0.50735613375324595253 0.47271487997055239294 0.091765282608130882558 0.25120731471017265779 -0.23911616386550360591 0.2045810010359520037 -0.41953797140688314782 0.55687588591480419176 0.28815987488656524818 0.61932060956273649044 0.088343508934483727657 -0.16233245812209196046 0.25016508828909223006 0.0029143819242861690455 -0.93131241608400328058 -0.64567457629283309117;-0.98231005703421292452 -0.76706167277197412346 0.024816563722278667248 0.37845115456997879821 -0.41803577714331219273 0.65836385472296876653 -0.18465085996410729452 0.094177275860836573429 0.5312307216618606942 0.5660051855700896084 0.013599271433378079532 -0.9661853691861986837 -0.25409550669445357673 0.25254389523194931133 0.22029093567558633016 -0.66694407569423830306 -0.085016560227189286181 -0.50785912730169935347 0.16099979948785803074 -0.74856338526029664315 0.33605195701790058216 0.60861511258081169018 0.67052154069249525481 -0.036736042670280855127;-0.24947940754632025318 -0.49938994607082809463 1.2531731639556662472 0.32207006859262421461 0.41735990212347506834 -0.30301207988108969094 -0.73554510885347657023 -0.59426630134398905625 0.1069561314503526539 -0.30890757285814957056 -0.19707961383037164715 -0.32237871945303453458 -0.44190212741725803935 -0.089379516741154324544 -0.41265643719181122062 -0.3732914153589761419 0.013521753803583461129 0.37333837196643210321 -0.17674203554683820538 0.15045256160434750115 0.45187538517688263795 0.43636693166701590041 -0.50599358309294384384 0.57823556123049590916;0.38563910420209124297 -0.024223561101100798965 0.50661836398847204244 0.4572171278991556953 -0.18997743654954563075 -0.13632047262812219124 -0.46844332725083620561 -0.08142840874510742788 0.38601602661597456123 0.84568991738656973389 -0.088026355642706333171 -0.09995532336966794773 -0.23991886261934830538 -0.71979038275741846764 0.61573132174468092614 0.13189242604469550435 0.35242505757806086297 0.086876733864344524161 0.20596458073406276323 -0.17978461239857068676 -0.10609335751352821919 0.30086773807569622274 0.37531611686165955444 0.014475740665866491247;-0.22184258523496391824 -0.020727282723972687006 -0.83340448276226708479 -0.76926824853286768224 0.090928629054434439993 -0.43415629354862644851 -0.4696081726206915441 -0.30803403925629491145 -0.22195226385190477969 -0.051535894393612446951 0.21036077968034827546 -0.20622002532527311525 -0.29777430495443690806 0.87197556698581912826 -0.23763880687465774311 0.13631024664863350404 -0.023552096145134815419 0.50850953011332777898 -0.38671698214704408603 0.62592784387701771998 -0.024347183575032890768 0.76074020697400634994 0.40385008951326895055 0.15661639325418330593;0.56120784794831002351 0.053924276052102371182 -0.51455054833400049041 -0.26077593417435129819 -0.33136870521674344214 -0.38730710631336640049 0.10025614019134801436 -0.13307951929617134468 0.24749093581888725879 -0.16948017411349375339 -0.11875946549980462286 -1.0082262730798572381 -0.12360929502752471265 0.39885842100859575377 -0.45036947240497404721 0.87425130116810867431 -0.50910461439594323352 -0.10686594299239038364 0.17636282134762493179 0.6433744701454714443 0.059897159619677231568 -0.07670577311388571129 -0.33397924555288305282 0.37823056005194982676;0.17351079292651278019 -0.03352284897829699295 -0.70436333544101115134 0.16925036175005953032 -0.27925482969796000532 0.095646495712444656867 0.36331399413219711558 -0.23663830981694203293 -0.36292347902504717982 -0.81667099474243853852 0.10681701821270053743 0.56141060908350048919 0.10699230848870294741 -0.21438005911889312927 0.059678530695909226544 0.42740636048242280909 0.24533422518682340696 0.072299904970520634251 -0.29110215960821395065 -0.2126748490316874296 -0.21677169475042315505 0.76801790287528814982 -0.14734258569625680035 -0.076683596179548341176;-0.19807418772797003026 -0.15919520790032026802 0.017995716912768910944 0.19986275926215241183 -0.11876505391740099782 0.25981560136664771932 -0.63282485534265786598 0.45558162454058614976 0.48140753809062442059 1.1306493660773757615 -0.25942099085276215664 -0.58243054951654793516 -0.093663625539827155553 -0.32180956557238549198 0.65220109958936622885 0.2529206211224210854 0.14995187359032846608 -0.39648151030133171879 0.45566751526143456363 -0.35217399741939714453 -0.6031561901936425274 0.56520724151875800789 1.0864945586403378375 0.8599799696641270419;0.26817425318138798929 -0.2701874904798813315 -0.0067750180946598570486 0.42552345358221810301 0.18659784117878663867 0.23271756192174974931 0.2308717205220289781 -0.12712862601940566609 0.24576466112191808211 0.34360399163645105602 -0.53100415925453692267 -0.091822154472023242988 -0.11393414929134693114 -0.44532975359234394652 0.088249174059605917098 -0.9220939753860808441 -0.12103416957148005473 -0.58304944350844267742 -0.15477991487671283188 0.14715641511667126862 -0.42753457724990773237 -0.48318108507460078016 0.092527641174786012801 0.38198641991226678361;-0.67893197188194864822 -0.53981059260866082194 -0.40014362586065921334 0.22744458110638521298 0.6056283451472144197 -0.10395582928207591777 0.32734630093807726148 -0.25251336362054038753 0.25705413330412801853 -0.65482566640745676345 -0.33262044198907758652 0.25057810272367392335 0.19951215006783315498 -0.7328545363350464914 -0.054175583144683847614 -0.44582603488198596642 0.0099534808484623704672 -0.40854598068998737581 0.3123667637588390944 -0.091196810408825323968 -0.24859263647333190717 0.34465068370433560307 -0.61719076917429571694 0.47188924815992583373;0.75586948677916154793 0.0840931257155652645 0.60423270907269621688 -0.096561218359412115397 -0.46099219716418704529 -0.012078576413724673166 -0.16179064629482386994 -0.71588066209330314393 -0.33234192956313490797 -0.3440000323183572406 -0.10232219795959540676 -0.15402704439156794658 0.0077765968566659848804 0.27800393389471311778 0.13376944111325292375 -0.24653263781941303634 -0.12810654599730669778 -0.52647671901628401159 -0.63858168598671538607 -0.25006220601916023805 0.080364365526683911867 0.72641003322320218949 -1.1948852542363277429 -0.13031932986953675968;-0.86206975252652595643 0.085075422467802003235 0.31264549643596539763 0.11575143425828648969 -0.070415120435131761667 -0.2339368903270548361 -0.70571459427910621098 -0.069381562618687497856 0.28698081097292549302 0.98557193032609902161 -0.15639491263818722233 -0.71288515035415822574 -0.15394115346803577404 0.62577123446050408884 0.26906142905365382223 -0.4647835219856568667 -0.30406243063318483255 -0.18846529797046146504 0.59186930906038281996 -0.39881385862599172398 0.14599303319331313755 0.39722229449969814752 0.50056629080592407455 -0.012204914514859721564;0.55690169849617621178 -0.14800745900350320561 -0.087338554230410148094 0.1957604145918662164 -1.1568957155470718234 -0.13330935253628140025 0.41502610799006589559 0.14750146610845479844 0.19556864361476139491 0.41291362739138270932 0.16196133201327628237 -0.28134656549877901099 0.17523982924733016997 -0.23584283953882212437 -0.14620175401978807717 0.12600895231507269756 0.28813136253859167324 0.038466080245635692059 0.14026756612222701648 -0.68933784246459106626 0.25205613344990629443 0.4686424090344483151 -0.021842153012742615559 -0.82299525902988635018;0.16774571084842115898 -0.04853756995484070913 0.0035392349402755263199 -0.4972318858886862758 0.20909607994531204112 0.056389041467115763595 -0.26392424199236330651 -0.43836710972523507124 -0.17637969363991756744 0.34121232278223645462 0.074438538610463178546 0.34060890529233822654 0.4985883453632410367 -0.21148047541219511247 0.53206463125367742251 -0.21080647634404564572 -0.13141448317289849967 -0.34268528327069674999 -0.40191844026046852356 -0.30071607897992791436 0.12317544850074518825 0.38493189778925940292 0.73034928432613888116 0.35484280573209514564];
  
  % Output 1
  y1_step1_ymin = -1;
  y1_step1_gain = [0.125;0.166666666666667;0.153846153846154;0.105263157894737;0.125;0.166666666666667;0.2;0.0645161290322581;0.153846153846154;0.117647058823529;0.0952380952380952;0.166666666666667;0.0689655172413793;0.0833333333333333;0.166666666666667;0.0869565217391304;0.153846153846154;0.133333333333333;0.133333333333333;0.181818181818182;0.133333333333333;0.133333333333333;0.08;0.117647058823529;0.08;0.0769230769230769;0.133333333333333;0.0869565217391304;0.0869565217391304;0.08;0.133333333333333;0.25;0.0666666666666667;0.222222222222222;0.125;0.105263157894737;0.0909090909090909;0.181818181818182;0.166666666666667;0.133333333333333;0.133333333333333;0.117647058823529;0.125;0.25;0.166666666666667;0.181818181818182;0.117647058823529;0.153846153846154;0.0952380952380952;0.153846153846154;0.125;0.181818181818182;0.142857142857143;0.111111111111111;0.142857142857143;0.111111111111111;0.125;0.125;0.153846153846154;0.125;0.117647058823529;0.0869565217391304;0.2;0.0952380952380952;0.08;0.25;0.181818181818182;0.0666666666666667;0.0909090909090909;0.0869565217391304;0.133333333333333;0.181818181818182;0.125;0.181818181818182;0.222222222222222];
  y1_step1_xoffset = [0;0;0;0;0;0;0;0;0;0;0;0;0;0;0;0;0;0;0;0;0;0;0;0;0;0;0;0;0;0;0;0;0;0;0;0;0;0;0;0;0;0;0;0;0;0;0;0;0;0;0;0;0;0;0;0;0;0;0;0;0;0;0;0;0;0;0;0;0;0;0;0;0;0;0];
  
  % ===== SIMULATION ========
  
  % Dimensions
  Q = size(x1,2); % samples
  
  % Input 1
  xp1 = mapminmax_apply(x1,x1_step1_gain,x1_step1_xoffset,x1_step1_ymin);
  
  % Layer 1
  a1 = tansig_apply(repmat(b1,1,Q) + IW1_1*xp1);
  
  % Layer 2
  a2 = repmat(b2,1,Q) + LW2_1*a1;
  
  % Output 1
  y1 = mapminmax_reverse(a2,y1_step1_gain,y1_step1_xoffset,y1_step1_ymin);
end

% ===== MODULE FUNCTIONS ========

% Map Minimum and Maximum Input Processing Function
function y = mapminmax_apply(x,settings_gain,settings_xoffset,settings_ymin)
  y = bsxfun(@minus,x,settings_xoffset);
  y = bsxfun(@times,y,settings_gain);
  y = bsxfun(@plus,y,settings_ymin);
end

% Sigmoid Symmetric Transfer Function
function a = tansig_apply(n)
  a = 2 ./ (1 + exp(-2*n)) - 1;
end

% Map Minimum and Maximum Output Reverse-Processing Function
function x = mapminmax_reverse(y,settings_gain,settings_xoffset,settings_ymin)
  x = bsxfun(@minus,y,settings_ymin);
  x = bsxfun(@rdivide,x,settings_gain);
  x = bsxfun(@plus,x,settings_xoffset);
end
