function [y1] = dsdpDef10hid(x1)
%MYNEURALNETWORKFUNCTION neural network simulation function.
%
% Generated by Neural Network Toolbox function genFunction, 14-Oct-2015 18:35:10.
% 
% [y1] = myNeuralNetworkFunction(x1) takes these arguments:
%   x = 3xQ matrix, input #1
% and returns:
%   y = 75xQ matrix, output #1
% where Q is the number of samples.

%#ok<*RPMT0>

  % ===== NEURAL NETWORK CONSTANTS =====
  
  % Input 1
  x1_step1_xoffset = [1;1;1];
  x1_step1_gain = [0.333333333333333;0.5;0.0666666666666667];
  x1_step1_ymin = -1;
  
  % Layer 1
  b1 = [-2.7297515378676213693;-2.5445563011327934078;1.2210083614601332513;-0.92905481730337091673;-0.77716284982441119489;-0.32888092206738295253;-0.84777334362297995796;1.307232753663613245;2.0727754758578291749;2.8876137045873901954];
  IW1_1 = [1.8051951934651970788 -1.9307238307279575018 1.3245001891129806193;1.5538506740600093181 1.1029882245112467842 -0.92911098986003803901;-1.8674754655035559203 1.4492123486051915471 1.4494930221708139939;1.8086921851271797745 0.64271581369660191196 2.205695162447646851;0.69192709472535041115 2.2617939415982255547 1.1601725426185072187;-1.9608808137256201753 -1.781902961156765608 1.2830373575060209923;-2.0316554932201205119 -0.17703717996003476287 1.9122367875682391158;0.58919653710855679485 2.384484390295016798 -0.90732784915525643843;2.1059224360678454602 1.1383487700365864104 0.90810744186208214312;1.9404614715095755972 1.9985375766049844337 -1.3315114424946210558];
  
  % Layer 2
  b2 = [-0.61832436804601687008;-0.94070060187953741249;-0.51835028654224302169;-0.72934777014424967412;-0.51607124908400947572;-0.46772958757537080876;-0.67043519533878048744;-0.83763544758687769054;-0.47118736472971489704;-0.57180731403987883343;-0.65762956592860455363;-0.59133418160432360544;-0.37104975480939528243;-0.48584416146734649145;-0.3303989578733318444;-0.070348628410276420331;-0.8537461258255625296;-0.97161914706164886901;-0.79357343902697752291;-0.39431841462976635615;-0.42081239382414636907;-0.68814854304183659117;-0.46816001597225004316;-0.38599319814666122053;-0.26215309828609834053;-0.69397321330985239918;0.044927400951345494717;-0.59786553422212573849;-0.94957318992373473954;-0.4035574858236702922;-0.4024948090752641372;-0.96925979484823610033;-0.43488905597828142469;-0.50376007732483885082;0.085395279391507913913;-0.45578326237327260184;-0.31773694736042334963;-0.54821709511127569847;-0.076921015408988491213;-0.53417688970691623584;-0.86526516937221487069;-0.57787159112665154037;-0.38784823799546275236;-0.66829618097595044901;-0.30772292469451556496;-0.13639115105640270409;-0.34203865829192936499;-0.22149220849715534065;-0.73112864338444660817;-0.52788255483023682757;-0.94275901519001259476;-0.70827750261521216224;-0.48532385959044688217;-0.72567518356918192524;-0.39658735656067684028;-0.3533157638083830876;-0.77835311904890647217;-0.73305362750690994389;-0.63134317437983300536;-0.60500116711489737575;-0.70863026760636704804;-0.57683068485473010245;-0.61250153305279742;-0.66108879579332036069;-0.51469850617995926978;-0.55037577535243176197;-0.56504702089517411245;-0.81616012459136966228;-0.74702144559470962104;-0.11459863049746715769;-0.54282896621069076648;-0.75555288968348921497;-0.72752652809003959256;-0.86584563156748395318;-0.64731729691599892984];
  LW2_1 = [-0.090314724986232691739 0.13842102064065253675 0.078171855916260246655 0.035249520474900125633 0.024574662936810962727 -0.10243924994545787477 0.074408398263414041174 -0.094921205375036440954 0.0053622660198342220195 0.060263800562476529943;-0.015496894648658068872 -0.37031787247662928397 0.15145893274132682382 -0.24488274063524528845 0.51103018993648985369 0.29508008498502608097 -0.40675183679803833536 -0.022409726948527164403 0.35107891719975636846 -0.14099053233017988518;0.011284988258776704195 0.4837211881590512963 0.26266832646254162364 -0.0045772185874496107427 -0.2124756885408999596 -0.09213285524347418487 0.071555825257203914402 -0.063003634862385110571 0.070416333438665781874 0.21046581406635070377;0.011239815664180807797 -0.15905008894345235015 0.19920821115579082083 -0.080863330855014819987 0.31682055812378823179 -0.032022691569777522735 -0.14542911047372117372 -0.17530752895822926396 0.13481425552059114747 0.087483800170056233436;-0.025789855546000758912 0.39594121679212235243 0.20886462231927638289 0.047028609627300071994 -0.098311395025187903185 0.11778175015574296469 -0.238276233950094396 0.20899187433690291638 0.13963340243020075371 -0.17511361620572796216;0.15734218700492241805 -0.055853610980182689938 0.10485805650350758789 -0.12846306175895133572 0.28198918041104026333 0.1802957453159358403 -0.17380123853854148597 0.22200128949727046535 0.16816478895046066411 -0.1609739446266136853;-0.038582721819598882196 0.092331820082659193938 0.1991681211441093946 0.053027875904864199552 0.054853404024621355006 0.0018468900230380110722 -0.1667962200067868439 0.039749649321780960998 0.025804472612950116184 -0.0088085921637056918687;0.12514935342912056337 -0.16323384887547950917 0.20132148010728723175 -0.22135534834275544247 0.20602357225606585112 0.065736106368839156144 -0.063207680335262639293 0.043752660440749921444 0.21643084030699064058 0.10026263061117693387;0.011444387629156435593 -0.0076768973472470872221 -0.0020351426649043453249 -0.033229056834140846544 0.28777512500669888418 0.027287164418240382469 -0.16428483987985464942 0.023756566137065573963 -0.10475614756056333965 -0.011470308429417166995;-0.11386835295163019732 0.14980470800637663009 -0.15958714536424217778 0.11337430618027163898 -0.0098924588597868803874 0.091442872238206018842 0.13798439095667111576 0.2155512439325720786 0.043425211220774743992 -0.048440724038379776029;-0.16073677541613809461 0.21577211788196229425 0.043858058381532338821 0.066703845912749790137 0.0022916798214163425218 -0.16800864858630662479 0.23118664247507600407 -0.16892323577327414408 0.035830619378904117467 0.3021446374046754535;-0.025617016371431447497 0.11797283722644907877 0.15988921687981072495 0.10963398532734208723 0.051020709270742675701 -0.056141286229313594469 0.098566202371347555466 0.056570149554417761828 -0.025164948235561562795 0.19559915851573417278;0.14107867536092361105 0.22145877819561085587 0.14654913940350636214 -0.17368400158133256994 0.32344127794244925678 -0.012818994917035919645 -0.19747996660599642649 -0.088008454715400682988 0.0067283515194996590392 -0.094060615150659679373;0.024631932968608223622 0.3350562974254162607 -0.037954006266796361246 0.0022769161776888258153 0.045408899694567975147 -0.13684341132814384356 0.24452802257631650606 -0.080341297765428643096 -0.10623595380365485896 0.27868981966297090569;-0.059317118206303511008 0.23864384754663417465 0.0070523973693817909592 0.26364267192291285236 -0.34806925469060734368 -0.026497724920842687102 -0.035501394070619023136 0.28538390797402507504 -0.063882659455654217107 -0.17465783972142928659;0.12750973399892837068 0.35556284779625640935 0.03785439033814005233 0.00041788540717559510829 0.17547538747543989235 -0.064445607788951586592 0.065086691886962894094 -0.11273363510693974743 -0.056666800667479588771 0.046708376439180770978;-0.020905884320085874051 0.016773703869534153932 -0.039303202408201648455 0.051068506382421954837 -0.08071848594788022524 -0.019449638225200217845 0.022430136143308430918 0.13361620980657398783 -0.037519879299479093337 0.013995206016719717243;0.056436960797113147614 -0.22403723946612666418 0.01124060140389411544 -0.10546670415254331965 0.21240207124791118942 -0.031985116166902999302 0.083777979754617301622 -0.062339758556510450893 0.090165571649031703294 0.12293485486881147728;-0.044572086233248195408 -0.16975030227276471928 0.00048903094851879616578 -0.053377875309317292241 0.20600641938593039493 -0.23376569260947582807 0.20606878627059987963 -0.21014385808779553755 -0.047075693985161017052 0.24020497965953538366;0.13742181772411274365 0.19930134587590253581 0.1155531018058622017 -0.19436844395821084586 0.2382121531768598699 0.13986398688858825423 -0.1901008488304412325 0.10955719051023807276 0.15720587537670505096 -0.13474803161457868383;0.20078222164292375274 0.071204075368012306746 -0.025468420275414127563 -0.17060755011803047099 0.14820524332693324476 0.038941341710114027452 0.0081606543019110515391 0.24217314354730520853 0.12570342104999310262 -0.012602093489182494834;-0.24629424375131225844 0.0079490267640731221421 0.143079870707090967 0.062911032176395070836 0.00083443366578799318956 -0.28634494888765277265 0.19701176031993850035 -0.25182295055276410212 0.031932612523765765977 0.19137762180050396643;0.19116601602430310924 -0.17793701993037386311 0.11830403646684378716 -0.12146802222446576036 0.30947271870517190084 -0.14743632202423895272 -0.030828130187739957724 -0.1472495103455034593 -0.073106104801516830216 0.020883622679463004213;-0.081515374357960038165 -0.028295493154909263922 -0.12492801943986225899 0.033528618356355635588 0.24485013959606288791 -0.035067659073677440174 0.10955532052788684305 0.046991483852174817382 0.059710025224093972451 -0.043116339566523761984;0.34113971681870136621 -0.23891630714024802984 -0.032025321585436021532 -0.20179612488320558539 0.43392618677395589089 0.36582551310140676293 -0.35529952794181784981 0.50282567212579598603 0.099515694045618496855 -0.45764129486165089356;-0.056119902516893707678 -0.11358340483080311967 -0.060810612066165455059 0.073158531778752380892 0.23585537684897259214 -0.047303667220297176965 0.087980942172808801471 0.038385240473177803522 -0.037269812667810417461 0.053229755677506880585;0.15611337394372060139 0.24308617431451201574 0.1327686540357070899 -0.067346910832126197222 0.18253940287066716675 -0.1904803068791924292 -0.07005476405591519462 -0.095251403568817505363 -0.11018809921022251763 -0.12559643024999425642;0.044547024103929452887 0.096524824987215818162 -0.05470153434531062342 -0.12675637099675493569 0.23319763222970463223 0.18722047076201034366 -0.028362286138855087592 0.11034646802144314204 0.11715201773038028121 -0.01962782004847006545;-0.044147579986330176549 -0.39798444529547494231 0.094440867033692491028 -0.20697828960410538657 0.36815373210475577093 0.25509504047918130087 -0.3888648119298873107 0.069921967176003074762 0.29504784178001786099 -0.15534354619916762585;0.1349869816716240678 0.19769932877224921652 -0.0040837336559754744414 -0.092126757684379195767 0.078240551998585788906 0.24540725187495324167 -0.17788611718901137237 0.39248634730554909922 0.1387467403237342134 -0.28857375293802378646;-0.059282330970227212208 -0.029777383646919137333 -0.091444754280315884709 0.080535410791114370177 0.41083458165462943823 0.087819943754614368525 -0.02611248593742561061 0.10544622156787453182 -0.065270687837034685463 -0.061514421089670826004;-0.10135897757418890763 -0.35992076456952326602 0.27487265086811946135 0.030798394848011105551 0.19790722896700604916 0.076511786598233585965 -0.24343975902651077137 0.065366643575661270704 0.17299940372871280836 0.010713272739076570156;0.22151293338081964879 -0.0065935750904809846407 0.057411314192266874046 0.04281711602678208578 0.11904234700532780045 -0.023447510177052967306 0.10790025583934685638 0.12353179957381277276 -0.14542498620082269789 0.18499642862170168067;0.015223049419572505861 0.024544334830383322116 0.14557808319628540161 -0.014375679661016216304 0.10597639241155341894 0.012372664929852658644 -0.21580780499153892626 0.10283458487012829552 0.15668472394627736 -0.39711843085349546323;0.38746878392645572875 0.15731968575540775102 -0.21097578392321730822 -0.25749009828628244279 0.50260117908991119862 0.019871291704934235245 0.26260200737293937223 0.11763335604080638053 -0.10036008527705445048 0.055785506868149543902;-0.0099446107902643882115 0.21091009117991618704 -0.019818283319904740625 0.0064972840887955532474 0.21410510672321236836 0.057439249667258739096 -0.0072993478349834550745 -0.046791932795478892448 0.010512773554865212366 0.10777965537817972563;-0.087152464711961585841 -0.025403912144136120421 -0.24646626484363426401 0.054131849983868038367 0.30559622632615290883 0.41364729642915226693 -0.0449493314892396717 0.46192892237714738846 0.27870258058997787742 -0.34849496531583668002;-0.089327553530955228211 0.028370428914106952945 -0.089432585736054420744 -0.030952372865635541244 0.31776046439215149819 -0.019388464776217445573 0.33238687218255658085 -0.056856508326027982436 0.022212284249695297966 0.32804778679786261719;0.096426663164875053846 -0.056450862204142908396 -0.15435944520798683399 -0.022618246910715004983 0.42741335303686833758 0.051368301976037339385 0.03725573891019393763 0.22220189073442084271 -0.13316002607402940838 -0.14724475174023438084;0.27164761671419068723 -0.04289372365564219497 0.18402466531448818943 -0.13776561139427159763 0.24356301624367632241 0.019379272827831868498 -0.10726381015977719258 0.17306351643450115785 0.05058412428427327967 -0.028154020964055326975;-0.07879436219925833873 -0.026772957279182475754 0.17564103013427900812 -0.035805724264276250768 -0.10169777412766620173 -0.041886788642458372411 -0.088602256152885236484 -0.048730717479983622076 0.24907410664972340353 0.028121241955624209918;-0.13175839262434435595 0.26110048682877767812 0.13555241360523345717 0.051371310751240940873 0.04960071663422063043 -0.23357573037393855597 0.088886639961146679534 -0.25416448133996261127 -0.09099978016223150834 0.31707360345290708237;0.06173713945574005324 0.076987887439476404561 0.092777047707259280296 -0.11045275875888538319 0.3304643574505988779 -0.14534248652074127639 0.002417663991188014061 -0.17908675463191828237 -0.10286765473072513599 0.17988387091528010298;-0.16343982278226631966 0.04668820348506343143 0.15261658147439538524 -0.064337022865865650667 0.35026945365619793771 0.098480324430402638169 -0.25667297509023911939 -0.046642711742074863257 0.23602960280826179584 0.040278261094404063658;0.063853832759720369205 0.1552137240862032086 0.10289530175417482827 -0.020231455587955322201 0.26209653495746204621 -0.11204662579664986799 -0.091337103501604774425 -0.14837713202161734172 -0.10559345313950227463 0.15635092826093432983;0.23947911678331518237 -0.091347852284257402555 -0.0087089259592390763642 -0.039804355763960970471 0.022235333326478652627 -0.052283523169540803421 0.075798299308790770268 0.38200494195855605462 -0.15238030691347109746 -0.22277238667213378198;-0.07510648336845744677 0.07658409613210900857 0.042736005170235000228 -0.043368925798672602889 0.29495083955330997361 -0.088575793203233291195 0.018508681434437498914 -0.16102766729345163732 -0.076222255647130199296 0.10900384412127708811;0.061892489304249592719 0.24483898619042537836 -0.10329171693915228936 -0.0070388003805462451279 0.44336096692689247467 -0.056212979473329330316 0.33853767814293750371 -0.093670961580462813734 -0.11905920935423003337 0.49621799198318899959;-0.25794870391424890022 0.19447683525813463934 0.083351119294775524726 0.11944280237569217251 -0.17780606003334581411 -0.23740208485997277288 0.28778213076818881522 -0.096564230665046685287 0.0016470724699884694425 0.33071410341708573633;0.13111398256835157805 0.1328884229854653265 0.027105332501764792252 -0.09285908905167913896 0.097327673099678671531 0.11102641609652805221 -0.059337612260577626833 0.15940155850217352373 0.056275557998288150419 -0.029173286984863905369;-0.083737472270178289757 -0.3348289468425414972 0.049103166967503497631 0.12293136616718151888 0.075042401427106483758 -0.14789790376146377815 -0.033320976880199540404 -0.0054888773668940304268 0.00067267526582730219342 -0.023945031856835788386;-0.09016103037309816659 -0.087421615691586504471 0.060526225053406886023 0.097595110879769908507 0.10584260846059452554 -0.045826034953052444121 0.17183318295371180495 0.17335311670556627361 -0.06570767557181028673 0.18015470772431174673;0.12441079222748616107 0.02718825547896961542 -0.024158246982567587596 -0.0050737353334837156926 -0.015243822301715170831 -0.18631440485006223184 0.11852878906279690208 0.12022473955033967374 0.054583583924132539344 -0.046200912624642015425;-0.12225207065621176983 -0.0079285721001004921815 0.016453071662839519052 -0.0051976878209721959212 0.17584434085934191883 0.072961434838011818282 -0.0045199180359527454942 -0.023438161111334357423 0.10310941303278871317 0.0070526605195365792145;0.27327419249405343615 -0.063519371261933590955 0.077714437487346951783 -0.14357398909013135979 0.37769335843622453552 0.083317347498745003564 -0.066746437389890736491 0.17734172646132140283 -0.067746896491009359065 -0.017003498060157155869;0.18965485020660868831 -0.16439312959446661377 -0.053169149542817741028 -0.1132466743975406448 0.41042714837264304695 0.15082453379788920977 -0.065819056309314921682 0.19329988652312896091 -0.032209505939271437791 -0.081877857886528390696;0.011580594075624582595 -0.19823939743315976969 0.091066344548996702724 -0.018168476745388642546 0.17165862283173055625 -0.014701849426620401673 -0.13790696906822069723 0.054426279141374017678 -0.03197348784823747514 -0.1180339529922573294;-0.098599238496766897222 -0.052909693943795049753 0.014664757343493980274 -0.025372277828245727582 0.170994897227737086 0.14691230224678855643 -0.12360665798367162505 0.083811904040926241133 0.01450191171443946693 0.097065631683516576111;-0.049061539979178926674 0.041082957439394891808 0.0041926591284425496209 -0.0048294943623374622654 0.19655511766382313676 -0.093710696539186705278 0.25744622626347152261 -0.0012668453027623455265 0.0125948663217409218 0.27859957389608053235;-0.081654023824041271906 0.021018064896106296302 -0.13163321045027809308 -0.001641539045844629327 0.034202514730984359681 0.092071695506412476462 0.033542004935914901398 0.21265853033264603411 0.20055439265712826646 -0.21026968627781433829;-0.33484183893716662483 0.042995827439276046444 0.072837397293445085844 0.15714869312874588103 0.026216148537065640106 0.080562816851286356279 -0.35433307300861999201 -0.1039995854511372303 0.046864332353402426978 -0.067068396025997567556;0.14963179496741912944 0.052957090698903579173 0.11945084317039203481 -0.18127888801887764858 0.23580675349032967358 0.042850968298280736613 -0.088069930652647898661 0.085532418453947073322 0.12260098898996145411 0.080734698952652672599;0.19290841249499093846 0.13006068900362222074 0.22699017252900546837 -0.22401102683591875286 0.14171641416409480607 0.14150546417088255557 -0.30028901553214037978 0.11790817673381727426 0.19502308872892037961 -0.11267752503973382794;-0.022556783676122182936 0.046317003863141664732 0.12987786948736812498 -0.10399999835122744618 0.25088364579192856674 0.1644335845987931477 -0.21595888001151719582 0.095696663962231975908 0.26760651833724202753 -0.19290053863731504435;0.25881301929221234293 0.19954126923888540479 0.19688638021819473978 -0.23588210921304886281 0.28560057820149786778 0.297901217618316283 -0.34674712790702100218 0.20986597342175117298 0.21374869504179344615 -0.23517956515505458737;-0.022192483756317632482 -0.14797740615180754453 0.011746604558031933929 0.15783331773276798593 0.012906192984088706716 0.0082960020409630075289 0.15231828950914921839 0.30112275571986313327 0.19854224614835261353 -0.23568787343172650783;-0.012770459366143092905 0.16420955065763159775 0.12948394674586255482 0.15709038339445222099 -0.11782846482288852896 0.052487933606179024149 -0.1713095764504486973 0.21564336064515238212 0.14456789223276728107 -0.23894018790789689488;-0.0055748142817577672758 -0.1541710481614010364 0.044134122363360013541 0.0010456287624466403807 0.14048348820334305431 0.046044262130075251649 -0.12332084580871119361 0.081132869210656349823 0.091632790669080380064 -0.026638134397962552613;-0.058222432174858139431 0.28360936890494947704 0.054323050932823982451 0.04824367285591286969 -0.0083814216817621987887 -0.045060465902138330252 0.046942321653849372609 -0.12399234242046454357 0.0043774483569908317904 0.11467462210919707188;0.11634909887645616955 0.21468801199609652275 -0.077685884722840409244 -0.071876550360669616557 0.25144021900295582261 0.25348721689232478482 -0.18250618914940006099 0.26452428867760902076 0.13431248844182341884 -0.40109403593489900697;0.0067299771777622613422 0.04022022297503916044 0.20631121099902968719 0.0152614219199163903 0.094730106430424995678 -0.16116494718278676079 -0.029868128283940434398 -0.079578192190796412375 0.0074166014664589757083 0.12965996850268360352;0.0080377701397854953158 -0.46092697872772542267 0.047821065762928646747 0.047126655748903442666 0.089358247364711901328 -0.24684275189436394315 0.076872438339474935542 0.17457402041389602498 0.032514663616123588852 -0.13958725790651901888;-0.15202183625385906618 0.19690418281976157511 0.067819021985516883544 -0.020724388893285539126 0.063361611724214228492 -0.34904811417738890178 0.42563176428556442898 -0.42796393427719914282 -0.05098506582409553789 0.57729208497438555536;-0.19714770294157762942 -0.15344889299296465834 0.26675652388750592525 0.065754177630084800765 0.28825440555533127229 -0.1292297556690199245 -0.080118244378777681014 -0.15760386454048089244 0.14274054243771838735 0.19961712162677183735;0.014376978610397210534 0.10334366023161871417 0.17364842062601570927 -0.01186590618364334257 0.20042086302333039782 -0.062893574961587608851 0.010978875530492353957 -0.057323628101493856457 0.0043908929652038686253 0.16474556821571278986];
  
  % Output 1
  y1_step1_ymin = -1;
  y1_step1_gain = [0.125;0.166666666666667;0.153846153846154;0.105263157894737;0.125;0.166666666666667;0.2;0.0645161290322581;0.153846153846154;0.117647058823529;0.0952380952380952;0.166666666666667;0.0666666666666667;0.0833333333333333;0.166666666666667;0.0869565217391304;0.153846153846154;0.133333333333333;0.133333333333333;0.181818181818182;0.133333333333333;0.133333333333333;0.08;0.117647058823529;0.08;0.0769230769230769;0.133333333333333;0.0869565217391304;0.0869565217391304;0.08;0.133333333333333;0.25;0.0666666666666667;0.222222222222222;0.125;0.105263157894737;0.0909090909090909;0.181818181818182;0.166666666666667;0.133333333333333;0.133333333333333;0.117647058823529;0.125;0.25;0.166666666666667;0.181818181818182;0.117647058823529;0.153846153846154;0.0952380952380952;0.153846153846154;0.125;0.181818181818182;0.142857142857143;0.111111111111111;0.142857142857143;0.111111111111111;0.125;0.125;0.153846153846154;0.125;0.117647058823529;0.0869565217391304;0.2;0.0952380952380952;0.08;0.25;0.181818181818182;0.0666666666666667;0.0909090909090909;0.0869565217391304;0.133333333333333;0.181818181818182;0.125;0.181818181818182;0.222222222222222];
  y1_step1_xoffset = [0;0;0;0;0;0;0;0;0;0;0;0;0;0;0;0;0;0;0;0;0;0;0;0;0;0;0;0;0;0;0;0;0;0;0;0;0;0;0;0;0;0;0;0;0;0;0;0;0;0;0;0;0;0;0;0;0;0;0;0;0;0;0;0;0;0;0;0;0;0;0;0;0;0;0];
  
  % ===== SIMULATION ========
  
  % Dimensions
  Q = size(x1,2); % samples
  
  % Input 1
  xp1 = mapminmax_apply(x1,x1_step1_gain,x1_step1_xoffset,x1_step1_ymin);
  
  % Layer 1
  a1 = tansig_apply(repmat(b1,1,Q) + IW1_1*xp1);
  
  % Layer 2
  a2 = repmat(b2,1,Q) + LW2_1*a1;
  
  % Output 1
  y1 = mapminmax_reverse(a2,y1_step1_gain,y1_step1_xoffset,y1_step1_ymin);
end

% ===== MODULE FUNCTIONS ========

% Map Minimum and Maximum Input Processing Function
function y = mapminmax_apply(x,settings_gain,settings_xoffset,settings_ymin)
  y = bsxfun(@minus,x,settings_xoffset);
  y = bsxfun(@times,y,settings_gain);
  y = bsxfun(@plus,y,settings_ymin);
end

% Sigmoid Symmetric Transfer Function
function a = tansig_apply(n)
  a = 2 ./ (1 + exp(-2*n)) - 1;
end

% Map Minimum and Maximum Output Reverse-Processing Function
function x = mapminmax_reverse(y,settings_gain,settings_xoffset,settings_ymin)
  x = bsxfun(@minus,y,settings_ymin);
  x = bsxfun(@rdivide,x,settings_gain);
  x = bsxfun(@plus,x,settings_xoffset);
end
