function [y1] = dsdpScaled10hid(x1)
%MYNEURALNETWORKFUNCTION neural network simulation function.
%
% Generated by Neural Network Toolbox function genFunction, 14-Oct-2015 18:41:52.
% 
% [y1] = myNeuralNetworkFunction(x1) takes these arguments:
%   x = 3xQ matrix, input #1
% and returns:
%   y = 75xQ matrix, output #1
% where Q is the number of samples.

%#ok<*RPMT0>

  % ===== NEURAL NETWORK CONSTANTS =====
  
  % Input 1
  x1_step1_xoffset = [1;1;1];
  x1_step1_gain = [0.333333333333333;0.5;0.0666666666666667];
  x1_step1_ymin = -1;
  
  % Layer 1
  b1 = [3.7588963321742361323;-3.1707468482753555783;-2.3826637455461296966;0.16058311575262718129;0.80550661833250991606;-0.79512383563518396201;-0.38479903146504984557;0.46687363915481594479;-3.5852541766336183393;-3.9139804769345669655];
  IW1_1 = [0.043800129138933031892 1.9114531030328407724 0.14021437064693212382;0.22990414707826531404 -0.93361633014309697298 0.81083443770636076664;0.745344858772094776 0.71754628924481578256 0.57351115799424745578;0.4321399000724301942 1.9846455998420304834 0.2505897336430254474;-1.6088531828540215685 -0.16502605474185308432 -0.84221265784655141573;1.5169848247976831512 0.17254571360936968305 0.96448260903563343138;-0.5917887758220252703 -2.5636511746128030076 -0.1727410395896638029;0.44891804737971319206 2.4189000494691486054 0.24415875733191347297;-0.46014409448517135104 -1.033804545892935467 -0.75450378290385744506;-0.67199142975663928024 1.5520071164000768249 0.47065381458290750372];
  
  % Layer 2
  b2 = [-0.55059228404827986747;0.56798067681794484063;-0.94995516704627269711;0.42739810741021905249;0.2472628700153068626;-0.72770849573815554745;0.34953680285894067614;0.78735949454793996427;0.69761266227043572385;0.14483653355112766081;0.018139783132563359197;-1.0315691375149409481;-0.2902566024513479892;0.18133170693737926671;-0.69279352230226443066;-0.12172359312336354653;-0.29931096460203443499;-0.58692102329332118682;0.031957371530555625516;-1.0266388921187377115;-0.57367426347401095921;-0.41349501668049665204;-0.33634046498367037303;0.0036125919404452330394;-0.27383127212844332599;-0.87254734637751463211;0.60986221169656151808;-0.10607183032446418358;0.38095992375495374427;0.53996829269751178693;0.24439526062075983548;0.68841183102642466984;-0.039386319070325158387;-0.79049515629604649725;-0.25279780675129137624;0.36035846902571533334;-0.75616925765866815912;-0.80409861675643490297;0.48931141421105983635;0.10765530747599266759;-0.734838971363132476;0.97898442887076597696;-0.52930773989184221051;-0.27207176346488554097;-0.40451985100927789762;-0.1907158906211269267;-0.50687467072763592313;0.27789767940122434009;0.044395413144373611913;0.2700755737646430843;-0.29611557116230063924;-0.3884800723253505339;-0.50991080166922009287;-0.48765951491343201285;-0.50476787339579332059;-0.77531315143104329035;0.043512323560460974825;-0.78958503957471526391;0.71864673125033839973;-0.20261832562162904181;0.29402120577292234493;0.25105829178198624252;0.062959820416722017677;-0.51433932639034796175;0.59423117984713547113;0.075473360757287610845;0.40680525478868040379;-0.0423783183385723905;0.30454980343196080828;-0.99100983712784052049;0.79814254746963586573;0.093576829147736545478;-0.47343652805195152178;0.058949876122282002244;-0.15789204642231760567];
  LW2_1 = [-0.6554147096333853284 0.36608254618303620598 -0.46259268131881697839 0.39425501439938820392 -0.26316934967116084598 -0.29294815376766847326 0.39194164200625208894 0.18342152097647379527 0.32348637206493202623 -0.7759765128525021316;0.1080299550615363563 -0.15810268000465899085 -0.21237727952386237229 0.87383768960181640306 0.37705882197323342675 0.236900781839150254 0.40987550034352759898 -0.1715651704346253803 0.71466675109813204703 0.75758727610820419951;-0.4546528873027500528 -0.54564463384292349879 0.13166915759268077446 -0.41173233340530496216 -0.39838576091468180795 -0.47539569320602009794 -0.36531613972636106658 0.13394673085803787682 0.19567146138250995913 -0.55462611144170614885;-0.54875865721225836058 0.12643235941717004267 0.65141815605890396323 -0.29439756078933254635 -0.15572583970561140743 -0.24899545138927595134 -0.23366079931566482997 0.32786481193330019313 0.086056707849997957083 -0.36209017149722211304;0.1794994371852796089 -0.47194486965160054037 -0.36190739818447897891 0.11189576905672300733 0.1049462256591912751 0.099953870973184380522 0.60700430593569476567 0.74550461779597654299 0.90183937674627712155 1.0446714330028104012;0.041819210402720977116 0.28570482958081194758 -0.60793565102228963593 -0.8324399981470906873 0.066563463673932773967 0.055540861543097973241 -0.31799139804627507555 0.73950104967407959133 -0.30065013170107535156 0.47855977955294937143;0.2888666540186438092 -0.51542847665084523534 1.1013144084955093227 0.070447139020851853863 -0.30745859585971185846 -0.25493559292307732544 -0.52927980577334421408 -0.35643771361733772585 0.54438878833778059363 0.023165017254779665667;0.0095974473195148957139 0.66356655871456393658 0.054628865589874689435 0.31261828998274088232 0.37256053635712454986 0.16083913375248254374 0.17795443123221316162 0.167549683569945429 0.43698794411218017109 0.13182299264585584098;0.2048359396351270012 0.64371321656806168576 -0.14377129436386867911 -0.48722046397989127176 0.44386813236070715716 0.4374176086027586341 -0.40487886118015892212 0.19477256870884884776 0.41372952249561717464 0.65124366519360932237;-0.60420427829527001418 0.53961163417332025372 1.000475195462293021 0.06320899525171046196 0.10748576249315092146 0.11063394036010852639 -0.24043055890025077925 -0.16642883286600126946 -0.51232057958748589144 -0.79120312105773971112;0.45849125409574065237 0.065927344957774816625 0.64637618036544708389 0.16545561917616263825 -0.006631963656711554328 -0.034784805464771702266 -0.26565846674480941836 -0.25672027252987211776 -0.10068189844383033937 0.42883287624961530238;0.03064980351689785068 -0.27582388992011119822 -0.23079017859869041529 0.87834677776666514326 -0.075581355420109450072 -0.14922547244819717172 0.53432152379675956766 -0.067554867511350688569 -0.63317914190511259687 0.73910423499963995297;0.23171819502894733245 -0.12670065636844329848 -0.50521541152171600686 0.54568394596433711374 0.07861538679708152122 0.031951576110582163848 0.38531688578717199212 0.06602636382371572521 0.97646279021861293046 0.28378970587009405557;-0.73531473429522797858 0.33567503607120363629 0.29523957944600037751 -0.031435535566843787747 -0.25043151620005976721 -0.29113697692115148019 0.17194521634885387429 0.28279268696974807495 -0.34977693836477907752 0.018621171953008521655;0.74935131088014617085 0.75616594222801991609 0.48635701261794417327 -0.24694163126675477971 -0.34855339849133221142 -0.24479273130722739582 -0.053250571215330194663 0.1793508415467638395 -0.27027496047807947344 -0.33937182667037474326;-0.28225393548587635051 0.37136881920068914864 -0.23713886237129533363 0.41254213945721535106 0.12061335395010977511 0.10310656292424298652 0.50212775701971490427 0.25712826950552031269 0.58764045845629864218 -0.5661088961668875319;-0.079045022169963813363 0.660903482209848403 -0.51044308962842166455 0.61375524337419462562 0.085621436629879851821 0.097910518204544327858 0.75597480222058277555 0.23930121169944279513 0.16597129067869320629 0.13004221956602649013;-0.26783344083391508184 -0.61920806039103670759 0.25206608098668503715 0.50545729723920940213 0.27237680956295973189 0.21208699645685974433 -0.24384418144363362302 -0.58535243788901358819 -0.51416494441816806837 0.76260322324671547811;-0.9698870578983133095 0.39089583651507037176 0.25262456342758338179 0.46831105081937191015 0.63463138832082766072 0.56481660281674983537 0.3331790907434463711 0.076791075602023306512 -0.5508427189688530623 -0.36754323949087475132;0.57316610401341105963 -0.033759882890215114903 0.16938724957742029575 0.25130243452519412939 -0.28206523502314195806 -0.34390747189801301742 0.28931830914037692803 0.34072386083137434776 0.16880437039774154329 -0.18859962939323299258;-0.70585073504734374694 0.40083372933372973801 -0.70236271227825253227 0.32122884096706233459 -0.020436268429735039709 -0.060128498110200885585 0.0091520830085792259645 0.007914771100506385465 -0.44279253845986527027 -0.08679195491125839268;-0.48182631115095203578 -0.17656379059901636253 0.73601206591791246137 0.26251155894814287572 0.051098446810464492884 -0.0093370990339434137978 -0.30720608635784468765 -0.39641971170823259163 -0.57374332940156425042 -0.41377766568034185513;0.25907399082455656592 -0.25896360815081448381 0.6110378209504745417 0.41607150311573010137 0.64404178714402449124 0.65926075394858929535 -0.18752315675470521139 -0.4089915041610625579 0.083059450253906930151 -0.036334632984834074054;0.72606826819681624663 -0.0053608550852877155657 0.67002583477493804498 0.037610720575411100974 0.23631828502964952188 0.2614368007806056049 -0.081943555225577072165 0.057424487547530919662 -0.25601016527600417572 0.75591685799043817351;0.16800953403134047393 0.21689374919940646036 -0.18450043631385981691 0.47731743991100533675 0.12766361569303369405 0.066364800256607681117 0.12717192739661070666 -0.096520056696425063358 -0.40647921532316094728 0.71272781913815097532;0.89823715625132760643 -0.28757381231512385567 0.14574327688109475765 0.37180617130142645799 0.13170364713592958017 0.13475414125177057056 -0.33981531404041548372 -0.54816737946729610087 0.28218570431853956526 0.54333243520275065208;-0.4785458805094492396 0.13166089675043876617 -0.16293886089572742759 0.17701000852860299117 -0.20342011929791256608 -0.17815883538572510614 -0.52272822729844226064 -0.53893891040630281797 0.63935700587036436993 -0.035954058034137731381;-0.11363247131894131658 0.17663011217091367788 0.34866346039090301279 0.082010236126662958145 0.4194332966758216874 0.44341460749847422251 -0.014331546242921454348 -0.035686576435182193467 -0.05244578306906335502 0.02410802816965348927;0.5129396704573911947 0.32360358253934135009 0.20493743293583308041 0.062172686688110094522 -0.08262101689452597264 -0.19354964487640813342 -0.14434636525316416056 0.018807472443043104365 0.44971936949432217423 0.36099076415170200383;-0.44862272249620271936 -0.011450278267519372472 0.0077463565135462413708 -0.094229725328038027587 -0.056743800679047926017 -0.0090968849676790371206 -0.06256732699564393485 0.28741968428993125428 0.17782373082866445579 0.50829928250835298975;0.1870441607761963998 -0.19977295581539258884 0.5829582354634560426 -0.20681223113133165303 -0.59085167543056327233 -0.58773812798156988002 0.27922662368869805016 0.73521260907058960665 -0.31850855645665998583 1.0088883470254563779;-0.1233178497669024376 0.68146246997138004708 0.65453291387258150102 0.10465981213164549102 0.70413715284064160027 0.55176697092784399157 0.53039313902482532193 0.90933017759144163517 0.46594832474119751708 -0.81736356665954978951;0.37857127960871078676 0.082348895170226754647 0.30912628599595270984 -0.093103633932185153599 -0.012364024005753886451 0.052616475889895743256 0.012659943719086203667 0.20659743790014106768 0.49023201609882627316 0.067627156053614509434;-0.27781130807330506327 -0.39063719250418638129 -0.22174073348682701856 -0.48605267774271321279 0.28131173948086451997 0.29078665495498562388 -0.44149199578941183963 0.1126908066220958099 0.86431476855710476226 -0.6396693376036267642;-0.41611898052771156831 0.64332217377248090973 -0.52176337395825711507 0.37718765949115806713 -0.39976626146764315806 -0.40371102348357984502 0.4395559989418514335 0.3749169448836925933 0.14743759668578823585 -0.4048603909286671021;0.4438228268429624257 -0.20609033128912029875 0.13194434367035492994 0.13395053238211523938 -0.41892246903004648484 -0.39651283004122150899 0.2862819558951936183 0.27460862391910756397 0.66233837566151909648 0.87542676911754169211;0.51490058357107171272 -0.37561970350762496906 0.60104114786447759844 0.03110718440385000505 0.49036372044993437047 0.50740048688563366142 -0.29601993835478163097 -0.074465279763825581449 0.38737773259084035127 -0.46393724811995235013;-0.59391146461018873293 -0.40022773441396292116 -0.28149969531915752796 0.41969032058905936244 -0.048269871928656005178 0.0097509596629708761295 0.46808496790741022098 0.39648522249207784895 0.079539306615434901548 -0.36465663131896269844;-0.90180408849783555425 -0.078676179308417609759 -0.12546269817282232339 -0.024098626124222831402 0.027885003226755612771 0.14643498267210167119 -0.67225020498728083052 -0.33072498228387747776 -0.31512195555856536977 0.54629805157592647991;-0.041330970256153669318 0.24589404760586780485 0.93591630320273200283 0.58066955134803666105 -0.17868922860135147412 -0.26924400541755838523 0.55312882349826064665 0.32575089071258322981 -0.55061488808201175527 0.0085224429937407458063;0.19585400372363112598 -0.073304011169938732007 0.25258034276417845598 0.038258977181019469815 -0.097745795275077262954 -0.19945983747547929577 -0.37945417867429859227 -0.27313415604305779638 -0.18405162599061702933 -0.099501635574156130359;-0.66830486505280828347 -0.3556675917086505323 0.69453232750341553636 0.019483719727643622477 -0.12660862214413942661 -0.13044686764141230628 -0.16673852481386924884 -0.071759741178953770357 0.082829382116437616501 0.55360115133770815277;-0.35745329175683310252 -0.58119255041726347599 0.51901472580058871653 0.009620271976851961851 0.71250772296680098261 0.68901071391906454355 -0.37507807872647264125 -0.25592247635927328764 -0.66589718718120394225 0.40360393371583225264;0.88479210308111955197 0.87977430856267280213 -0.49378075512089275589 0.53092587710527305855 0.85309942789693438137 0.79320630543063674889 -0.50110141924610285269 -0.74682428441403392316 0.15817069743760930889 0.47817602930377617332;-0.03338257131069788386 0.57282559497501728263 -0.23893495745003498487 -0.3910762020891450641 0.21777559669655005559 0.32520819640083126201 -0.50442854044870566455 0.060184984202507264828 -0.31370214853036382241 0.079581324510646728188;-0.97778125024146023136 0.0155247494182339206 -0.65163572927048241112 0.21610576487104798948 -0.14506976894243689413 -0.079097311775809725498 0.69361614827879869427 0.60181226746032989716 -0.4743435272368902722 0.22661827977041340554;-0.66185709426745253925 -0.15098294148450078223 0.17314176311499951399 0.63967721045319225759 -0.0012599423366190429761 -0.12924466293122216509 0.35479093408487244465 -0.0071713794042388371436 0.052526933774738431004 -0.71263983035141997835;-0.27862103164374801834 0.022114548335062753082 0.44605653625497315717 -0.55187038764197027252 0.070499732526659988907 0.17292441598674393455 -0.57313848971778214025 0.19100266453835307301 0.24056488546630222514 -0.12825715643934224031;0.45271397303811317103 -0.098894713266062847512 0.054446957456886171944 0.051966141110217384247 -0.32656608659953889617 -0.32304325647764176033 0.24375353753570935811 0.32940610085533883478 0.62628077520102010123 0.45280994140314645424;-0.56085493943896091995 -0.0088453369230255644851 -0.37498787917493897615 0.2505542292288207018 0.69769177127828707619 0.66331963342682542795 0.47820447761419071497 0.37380283414257697849 -0.09089160248529119801 0.79697132638825440853;0.2513880814220354476 0.51801724226760059722 0.60791987454203100238 0.47116621255202684182 -0.082106085239902565354 0.042552583940273447372 0.19904240871857514783 -0.062940428998104661074 -0.20622895406557750775 -0.4911381308440462834;-0.10201421605315275087 -0.66113627038907729627 -0.012208952043096604756 0.15861496469396038633 -0.1648212506685618195 -0.21453626929283392544 0.81514157730926040113 0.91672390928320057757 0.86380657234653068777 -0.12187131016352212298;-0.75850073614441926306 0.60442343886627902805 -0.25698316473902277357 -0.53318636719585443817 0.56100118199195847524 0.58010341589743008583 -0.27250490342389271925 0.45978367104367512397 -0.41129245145376863713 -0.60310894130705905436;0.57085153130937982269 -0.34704685060110795902 -0.18910403010070639396 -0.04552299582313637516 0.071492310212019447024 0.12882699551801532478 -0.06513584475012304531 0.09625606517972604137 0.67885075749290701985 0.51145985793365533745;-0.18837278679470359499 -0.35120823636784392896 0.26371273277484064135 0.26004847775798323184 0.71124622088425382138 0.66887899942933237707 -0.11042010633414715837 -0.10571989823065121306 0.054979475189404519719 -0.073207285236805197393;-0.37421323054659988427 0.32121124599588218862 0.25406734657825963408 -0.089872695914604311396 -0.37522717580396958148 -0.47414059196926366946 0.12670425133856144662 0.4603976593698350106 -0.71820625541950455784 -0.42772156857018389653;0.54023940190091268576 -0.0018642614570838818983 0.49279151813651106417 -0.55126221361493488171 0.42430372395539145414 0.38104037666057288813 -0.87108156870388220305 -0.21920424229354823487 0.37338564080665181955 0.46097092816528700832;-0.18247367548993995157 -0.47588102857893577191 -0.21956493317446035274 0.49476181880778713484 0.1400510858642332046 0.19707844467130902766 0.46587697391543836378 0.13240484238885621981 0.41785499125429487188 -0.21358850558871533831;-0.16247844116717466423 0.70689107341034096432 -0.33483434663545441623 -0.20180012011489900647 0.26916986807515458358 0.24544727074899702624 -0.39081884466917671261 0.070384160255787392435 0.15431995198984926887 0.678206300782622451;0.060467768173687840016 0.42036278943991994828 -0.21185349695712923923 -0.046899610809421246604 -0.06556998308354883287 -0.083159881079361869238 0.035646606874731263936 0.20870636424085167726 -0.4624944810168977738 0.76107892879761152027;0.4060481862308120693 -0.15106125895404431958 0.94020390103771545043 -0.10546616624672608409 -0.0089935410816575026699 0.094511190439262537932 -0.21768701984941668526 -0.086742627116750709027 -0.65548957485734660189 1.0075995341080346002;-0.23281550327469019424 0.21613064284618666022 -0.13350204083898437046 0.17088776918295492391 -0.36929641036417848454 -0.45872779621854370413 0.23278379304714333364 0.311306511711649192 0.058520824520907691046 0.4404831339362623166;-0.48792128499835352162 0.8168556106571364106 -0.27035485332935210723 -0.35766809932458520915 0.1716355451837867363 0.16201376696472230554 0.23866567746639771874 0.71766172253808790948 -0.22893735191368000392 -0.12921696944378896488;0.18492566677177302292 -0.07890675711906640355 -0.43913318873272444431 0.012981342687223212246 0.014220474917833052925 -0.037409918013097565037 -0.25424026173834268771 0.024148298460045090896 0.02150880456602204116 0.70755345920721823827;-0.070127424264512003282 0.045681742555376644854 0.20288522100721101404 0.55656934575563643541 0.068415291052399476723 -0.043747067643782416857 0.274169189628369947 -0.089490943754471946603 0.86072172032596638847 0.15259932672067941239;-1.0068665001403718229 -0.080451676090876916847 -0.064978954017100049034 -0.37105428380890376205 0.045029863289448662789 0.13288947103040102404 0.09536146950004313616 0.50926013463749630894 -0.43976305923571407108 0.24936832798220656682;0.5459086389352550972 -0.058849392964713073684 0.32799086662274734572 -0.56829409546157449995 0.19333724153284251313 0.27482172492251000229 -0.75448085298576772484 -0.1340167409371952334 0.63875043978468681871 0.66792082563814525464;0.39852035069494035069 -0.38076097674494330247 0.33731408703004062133 -0.17847658261325349827 0.54165218117654445606 0.55746807798284836455 -0.26487485055837972636 0.045954190047506338068 0.37351766171723760346 0.63622598940938812628;-0.65632767122695079287 0.65244106622476538693 0.28545344818244305918 -0.10156004872651304416 0.06352461004275251899 0.055034349098069902662 0.066148351396083340803 0.17581732329529395353 -0.081269129062315481615 -0.20084086036751597204;-0.058062267774688196276 -0.303467772640873934 0.15737306088506197721 -0.21318305559476963262 0.13340488469501254887 0.10822040426439893945 -0.32704846282592464624 0.071853666265349017128 -0.55823631602887480163 0.25512566090252275508;-0.96058605633748328501 0.14330500364871950891 -0.34512322355471042323 0.43072648280723258019 0.40085264146132709717 0.25494082898594627729 0.58915542327347047991 0.53382815949512041342 0.46500121879664885194 0.084635770026984538661;0.5851765577376797367 -0.11147826602621790926 0.31571664201457533272 0.04864819654152269246 0.14074844212969991886 -0.032144650167453679701 -0.32308490455071953162 -0.1603732144862888287 0.02561585009993326556 1.0296555307869983409;0.22867473873717944488 0.19398603156202723352 0.62160364802944956253 -0.15511488098918357892 0.22902326467988717851 0.16593008204143241957 -0.4603868432801626609 -0.29492017286280036714 -0.89083412715125032122 0.52451366835388135712;-0.078188063155552919858 -0.63715875584584447111 0.5452752133196067108 -0.14219372272407465596 -0.44628804342976702291 -0.4631703642040236879 -0.59582364438500212689 -0.031184448482465671609 0.83678522611144656729 -0.30666816176215644374;0.1699598789690817402 0.57977117888078610886 0.58061400116850525599 0.62852630354635374843 0.32498563585116341246 0.1371308083359632779 0.51214325065826149519 0.18648811082035368636 0.21801943967517156686 -0.64169124115467068847];
  
  % Output 1
  y1_step1_ymin = -1;
  y1_step1_gain = [0.125;0.166666666666667;0.153846153846154;0.105263157894737;0.125;0.166666666666667;0.2;0.0645161290322581;0.153846153846154;0.117647058823529;0.0952380952380952;0.166666666666667;0.0666666666666667;0.0833333333333333;0.166666666666667;0.0869565217391304;0.153846153846154;0.133333333333333;0.133333333333333;0.181818181818182;0.133333333333333;0.133333333333333;0.08;0.117647058823529;0.08;0.0769230769230769;0.133333333333333;0.0869565217391304;0.0869565217391304;0.08;0.133333333333333;0.25;0.0666666666666667;0.222222222222222;0.125;0.105263157894737;0.0909090909090909;0.181818181818182;0.166666666666667;0.133333333333333;0.133333333333333;0.117647058823529;0.125;0.25;0.166666666666667;0.181818181818182;0.117647058823529;0.153846153846154;0.0952380952380952;0.153846153846154;0.125;0.181818181818182;0.142857142857143;0.111111111111111;0.142857142857143;0.111111111111111;0.125;0.125;0.153846153846154;0.125;0.117647058823529;0.0869565217391304;0.2;0.0952380952380952;0.08;0.25;0.181818181818182;0.0666666666666667;0.0909090909090909;0.0869565217391304;0.133333333333333;0.181818181818182;0.125;0.181818181818182;0.222222222222222];
  y1_step1_xoffset = [0;0;0;0;0;0;0;0;0;0;0;0;0;0;0;0;0;0;0;0;0;0;0;0;0;0;0;0;0;0;0;0;0;0;0;0;0;0;0;0;0;0;0;0;0;0;0;0;0;0;0;0;0;0;0;0;0;0;0;0;0;0;0;0;0;0;0;0;0;0;0;0;0;0;0];
  
  % ===== SIMULATION ========
  
  % Dimensions
  Q = size(x1,2); % samples
  
  % Input 1
  xp1 = mapminmax_apply(x1,x1_step1_gain,x1_step1_xoffset,x1_step1_ymin);
  
  % Layer 1
  a1 = tansig_apply(repmat(b1,1,Q) + IW1_1*xp1);
  
  % Layer 2
  a2 = repmat(b2,1,Q) + LW2_1*a1;
  
  % Output 1
  y1 = mapminmax_reverse(a2,y1_step1_gain,y1_step1_xoffset,y1_step1_ymin);
end

% ===== MODULE FUNCTIONS ========

% Map Minimum and Maximum Input Processing Function
function y = mapminmax_apply(x,settings_gain,settings_xoffset,settings_ymin)
  y = bsxfun(@minus,x,settings_xoffset);
  y = bsxfun(@times,y,settings_gain);
  y = bsxfun(@plus,y,settings_ymin);
end

% Sigmoid Symmetric Transfer Function
function a = tansig_apply(n)
  a = 2 ./ (1 + exp(-2*n)) - 1;
end

% Map Minimum and Maximum Output Reverse-Processing Function
function x = mapminmax_reverse(y,settings_gain,settings_xoffset,settings_ymin)
  x = bsxfun(@minus,y,settings_ymin);
  x = bsxfun(@rdivide,x,settings_gain);
  x = bsxfun(@plus,x,settings_xoffset);
end
