function [y1] = dsdpDef6hid(x1)
%MYNEURALNETWORKFUNCTION neural network simulation function.
%
% Generated by Neural Network Toolbox function genFunction, 14-Oct-2015 18:45:30.
% 
% [y1] = myNeuralNetworkFunction(x1) takes these arguments:
%   x = 3xQ matrix, input #1
% and returns:
%   y = 75xQ matrix, output #1
% where Q is the number of samples.

%#ok<*RPMT0>

  % ===== NEURAL NETWORK CONSTANTS =====
  
  % Input 1
  x1_step1_xoffset = [1;1;1];
  x1_step1_gain = [0.333333333333333;0.5;0.0666666666666667];
  x1_step1_ymin = -1;
  
  % Layer 1
  b1 = [3.3807256520454336268;-1.8110295001453775576;2.6631585290913424302;0.40231908187493931051;0.1711377254355616051;7.035406146948960604];
  IW1_1 = [-0.71876994971172802895 -1.0007288944558458965 2.8327188462906649491;0.76360789066162637617 0.96771480341952309523 -0.87718197967676547755;-1.9600763912456307114 -0.62353067800213934913 0.011242990333703494973;-0.43039638131369917229 -1.0980450446818355026 -0.10800232276117993635;-0.005922087103029615579 -2.6526147777641568837 -0.41701339866258252398;2.4946154454529150257 -4.5767856237914221751 -0.70192393334682712247];
  
  % Layer 2
  b2 = [-0.75879893921199736972;-3.167193112696500723;-0.59593252697220377989;-2.0394388233006175426;-0.35042614958407669601;-2.3531524157461420899;-1.6032850083916836414;-2.50148846692547977;-1.6647802751668803189;-0.66256122666592554005;-0.45045421542717228869;-0.042546249075868784739;-1.1868586191852290579;0.8358480671556267616;-0.1876572035823230733;0.48166700775381604549;-1.0072989692499700887;-1.5526833558383339451;-0.28499923071683408438;-2.2505542948474710485;-0.86984896874346739892;0.34248170281077233712;-1.6508762378869070719;-0.79079699738299291667;0.17200685743553389973;1.0504224763534846243;0.78669512029963595268;-0.48695010742646593904;-3.1936756774547809812;-0.62327046973170907584;-0.37644403509345758518;-0.82788174379115009316;-0.43122549115693237232;-0.77718713537184891393;-0.54702517825574059618;-0.2066708344625145799;-1.049862985944920668;-0.68477458266181789881;0.4416253928040044241;-1.3736939529842093766;-1.53636108074824973;0.27475084253663939471;-0.18330618289826874912;-0.9093636105101639;-0.49184960623306733796;-0.43047827195013738111;0.2368015395178353355;-0.78029166619120959858;-0.23751797382980699425;-0.77438092207812936341;-0.86397351387435272763;-2.0625705855596461191;-0.55230479571666868388;0.73787085673489227755;0.69276394407842734058;0.53082480839338885836;-1.914038846423777418;0.16337609348425641276;-0.060541284296705660806;-0.45898427991520429625;-0.68900705665850592307;-1.2616073185845517735;-1.6812710423354997324;-2.8673301783711164781;-1.8068139423504854246;-1.3114642424613776051;-0.60773580616469358162;-1.3464724141391837264;0.03023787730862021253;-0.32757171563585518737;-1.1771855607871257732;-0.47135705704077734968;0.014312116600719224091;-2.6117313663485601793;-0.38338792209565508706];
  LW2_1 = [0.065988329371223009012 -0.0035323834305377999065 -0.0015387119232392609813 0.19885693932524453609 -0.29387807779158758859 0.022750147972196779755;0.68817109247696783836 0.43073076962937117962 1.4737633808702823579 -0.28004123789245483067 -0.23907218917815914461 1.2434494731736271955;0.30958934919325908908 0.90346682492583885171 -0.02890766423063251267 0.31732870173815364012 -0.21669417094933401957 0.48586931549198963953;0.42954518078282288851 0.0068603058763754831695 1.1627605440315671448 -0.65202817377709443303 0.017733510950213415835 0.31300950455084441959;-0.096980974088150317947 0.40349676457061245394 -0.42205331558814762616 0.46145903529555432065 -0.44771374281864562139 0.49784908521874682297;0.7415931901156161965 0.59917178607043242167 1.3478703889011600658 -0.40227728664966694305 -0.021069598311112103239 0.5875773686558842801;0.47664189225049430343 0.040712912287430499947 -0.13620938132272161769 -0.079597748018749164833 -0.23175584633090173803 0.84439872828235118529;0.58462014482728374976 0.48968339899061674725 1.301466873766693233 -0.057615488557839128481 -0.22475155288723155933 0.81889694044921423899;1.0817130699693404683 1.1248532683691687684 0.77384000740558966935 -0.25904308006490045502 0.021786089287186644059 0.36655291138180357002;-0.43739435659549530389 -0.71273692060126236925 -0.22800962731844065523 -0.48100288111054950724 0.080602608758537946931 0.1438238545212067454;-0.55097700342028566034 -0.4832693380425673868 -0.055241787676131734464 -0.096133789241860820307 -0.17217285732020876088 0.097601289072302227501;1.0441031492780807888 0.60798205755367429326 -0.20366357676754409667 0.41700861726426841081 -0.53543780820897290962 -0.80318459860809598982;1.1368912531174846237 1.4905459132145384427 0.6788442285812800181 -0.087376293489809173098 -0.08377492851696552445 0.10497589769564161233;0.89739004413761980228 1.289671630385937906 -0.58326617734291219541 0.59396025996593415641 -0.28531538040666831746 -0.96407273918607094831;-0.049483579384101583631 0.27724072882869454926 -0.33238399831014386887 -0.095729959495285635307 0.13218844751611885657 0.16730465510295666753;0.64190644631326054803 0.97002000163629553686 -0.22974024014404187399 0.12348735368534595469 -0.081776389027513371466 -0.61196656115106240481;0.50531773111133526655 0.44934918576190097106 0.41178467938769408585 -0.16594808209257580489 0.091205837798962102747 -0.28099791599202111891;0.45871252076586777058 0.15956544048315005058 0.47013493748430923436 -0.27049302357709525957 0.016260210739552485859 0.16701023629443134677;0.10418242915510537994 -0.58729293421279971099 -0.81093147026470258076 0.15089167793715374533 -0.31591267030458836107 -0.21703155861489981104;1.0434095525433084717 1.1823849985045540301 1.1397231639678697679 -0.26388835007118693898 -0.027088338710557581523 0.7603526595163226931;0.67188100362537828136 0.47946153502694666138 -0.82233184568203498976 0.74461085856018693896 -0.61610665845842438326 0.83326934922470030642;-1.2072569976213278764 -1.3203777896312407503 -0.30666633888508348926 -0.060487178196396013119 -0.27158911985105171905 -0.45454577955167407843;-0.44804771737521487118 -1.1544767242690305853 0.20935563844660431965 -0.58076975312772971538 -0.014286169519818064932 0.55918887065282341098;0.92544893957799356787 0.28116281221340033714 0.61251551732742814949 -0.24726391499753233583 -0.15925740044363476122 -0.71201403875413848965;1.0919353362835901855 0.64774977045454407154 -0.89243260997398476952 0.55051931190601322008 -0.4908283140986436921 -0.35508523868758279374;0.038199372812441984015 -0.19306997760863472968 -0.72909082810173619915 -0.026894047493263156801 -0.13090665063966908099 -1.2785452305385982541;0.68348675980143602793 0.88929070540464927319 -0.29971168760324884417 -0.099342310921222851117 0.0062621525535058314427 -0.82421262511458881495;1.2430600472596438077 1.2090206345915952557 0.52537304900848824651 -0.033258215125296634873 -0.066674306358311313803 -0.75174097971197051393;0.92609362535968542396 0.66060280815043170843 1.8945149385460084979 -0.69159111079540203093 0.11250140303388167506 0.95988197197348368306;-0.17426932186031834915 -0.28952899748728411211 0.20350377233119240628 -0.38250738622015273416 -0.031545179060054856501 -0.12153858677921021425;0.50119953395432148557 0.13143774545455186309 -0.50832567859170507685 0.09236395408247007055 -0.35211478192951445321 -0.080980208039969345246;-0.66593928325659834666 -1.159533626095015979 0.1855395319805921428 -0.18524423792463878824 -0.35285742412568565918 0.092325151401899258063;-0.22965043979466273627 -0.57006247407456323018 -0.58689347945019043618 -0.036640543286321797245 -0.10102186741992139063 0.089913830417736734235;0.32486633310295420785 0.14116736227870865794 -0.60775959492998499201 0.48517569144692890282 -0.5507971280652803614 0.52577648102383855999;0.54112156397351596215 0.47345993122198531955 0.032914828773631971126 0.25438977804052087528 -0.39973365450272402288 -0.070241487397991186903;0.32290852031846434267 0.36258237374993740332 -0.57057264314676814365 0.37396912643802432408 -0.37195843667281752731 0.042359415014492154961;0.84499001825158570611 0.41867236988948963727 0.35293884576825740318 -0.1154165307076357172 -0.19560776534824150796 -0.017621113653354544826;0.79769400161428272167 0.45413112549695061615 0.20471493192688347551 -0.14053369169696333651 -0.19664262128045142952 -0.29104793519733745955;0.28193957165717942193 -0.16155612109693209821 -0.2209935024796344516 -0.31450451651422878241 -0.13231690115368865968 -0.98772045724283863422;0.2282228371424098734 0.032611733326835701252 0.43832158531776638233 -0.029794149418458083095 -0.33459209632311875948 0.31324230396897845274;0.34932915027533828489 0.35371292907962742502 0.96358610718032688958 -0.38275268972269710366 0.12144602530579230726 0.31167102140744462613;0.37112589959613040413 0.5203699151238518894 -0.37023846365047263784 0.050516006801477011945 -0.19464404515895497583 -0.41223137038849039238;0.33011535597623575811 0.0562935160367839596 -0.72859231797928203367 0.18196599968459309382 -0.42401479676132702856 0.1320274065373782113;0.61218516574104264727 0.54589312301826353746 0.59502540924332747441 -0.34926858864562593254 -0.19710927642199160825 0.026441097323464890501;1.5147518537497031144 1.257526719556717687 0.20343115254261606717 -0.12205673809238182237 -0.13852568333924727972 -0.38685165995833220576;-0.085214475715029464054 -0.19107037394342013537 -0.004906068975529167403 -0.036769404262277941009 -0.11806258835647510941 0.0066309927928083663151;1.149509912901675257 1.0172277409956735905 -0.27087978652501965016 0.26540586386570397259 -0.31950269352206767115 -0.69598741666044239285;1.2072068448382753392 0.97726122969345818881 0.22242582495685864208 0.027084096493120699001 -0.30231814612716201296 -0.20691197508618724976;-0.073199370921729359218 -0.093031674326627511462 0.27675768421054952606 -0.44472970539932543677 0.12727917444682212977 -0.4982213835330401297;1.0351172332909377438 1.222956019535816008 0.20556376675179605096 0.22666609974954113338 -0.13932054462591988986 -0.008155322567899955799;-0.90159631696347652952 -1.7146950507946072673 -0.48614232993083167367 -0.45869651915200504444 -0.07961246004297849177 0.21671691951457405789;0.92068314119567462583 0.44964940826147026254 0.44956421576817201524 0.20905716331130039243 -0.42466038416460633043 0.72880761279641914641;-1.2702887022018858332 -1.3394305394247414398 -0.47521995299843755589 -0.38276824462910308267 0.015716694995567950799 0.58720066374638246742;0.039798053509676870054 -0.10385954552791645811 -0.54700677663542374152 0.19970733859621125905 -0.24158475628616452036 -1.0111284994853180219;0.57486392324097312923 0.47346353877540386934 -0.42472761747057485859 0.51428186457627589334 -0.51710423458783871808 -1.0902645824882348791;-0.49425757582199669748 -0.72124699229030708736 -0.51768766360148776862 -0.088997432805044823789 -0.1667154354294856089 -0.70872003358286872476;0.4140262603531816854 -0.15020815999738520996 0.40585140095457677978 -0.23064699988581785495 -0.15165507541494580024 0.49502023946068557381;0.89999997164502532065 0.41218572513932538737 -0.017396684343188417721 0.074555947861003252219 -0.26364184677371382826 -1.0736145802920638026;1.2595057041723598523 1.0923070807335344412 0.37936919878135244577 -0.049003859910504071751 -0.16636293178844263618 -1.1252168550722414508;0.24020091958260780807 0.18561932795973734578 0.01638472298662962956 0.14267126331222246272 -0.19008606799151037126 -0.23870527849185690927;1.0357489076468371358 0.7124932975798368151 -0.39076037419451237209 -0.29836855871244283289 0.10138821053131608085 0.31927894794969341463;0.34913961666449444543 0.7726020001047184671 0.95694883015722032038 -0.321649658834701202 0.021426242811749318662 0.29257609631171843656;0.96560482935601221754 1.3376040427329698446 0.74582144102846215095 0.053878387609613720421 -0.092375802460238978786 0.71676049928508345221;1.3446747143205757258 1.1173219831567100524 1.4579825724127952746 -0.46793168105575216886 -0.025558921116510077698 0.88868580725244916696;1.4132429815953200247 1.7484317108177249711 0.94728139250334286725 0.13997306910146020686 -0.19299252091515933794 0.46325151129695951724;1.1493384249620843818 0.61777817238131560451 0.22343524889927382504 0.056548084243442903185 -0.17980755728538924676 0.059662921040373601;-0.18628820542546620231 -0.21154372901534357343 0.29354917746048392324 -0.55921949651799862657 0.1742710327903689016 -0.11846886305764632585;0.081322175745304398076 -0.36149106112241724542 0.13925502438448028597 -0.19485524540171142438 -0.1420914712343032682 0.34060871546839921464;0.60082016784486358407 0.91909795812721573061 -0.51886688938681457817 0.4961416878638169603 -0.25778523583136220276 -0.3298249365865134064;0.19576663123531684585 0.56111748223281632253 0.17814513426991762657 -0.069627588187785249829 -0.091152810443549392438 -0.10281778133298247191;0.34894300749310813714 0.16772249201339944902 -0.12834800079532188155 0.29255822013620458311 -0.48547837926247683349 0.71359991915541831631;-0.44149043178742225502 -0.48186431440692201189 0.18359852634905785007 -0.091902476013470318916 -0.15256768266025766412 -0.13229204457376991799;0.55991746030920563904 0.55078100615733394108 -0.57657925961559408634 0.44483628475254088919 -0.34724755458145900588 -0.27334279546810530404;0.67085584198750991547 0.41416513722926662222 1.0626103964598756502 -0.47931663986919303966 -0.15210694429119478444 1.1419507327343625391;0.88772780456896227541 0.98012741144781756475 0.29868017219656195493 0.18278635940702225859 -0.34367863865217262997 -0.50950310273030352537];
  
  % Output 1
  y1_step1_ymin = -1;
  y1_step1_gain = [0.125;0.166666666666667;0.153846153846154;0.105263157894737;0.125;0.166666666666667;0.2;0.0645161290322581;0.153846153846154;0.117647058823529;0.0952380952380952;0.166666666666667;0.0666666666666667;0.0833333333333333;0.166666666666667;0.0869565217391304;0.153846153846154;0.133333333333333;0.133333333333333;0.181818181818182;0.133333333333333;0.133333333333333;0.08;0.117647058823529;0.08;0.0769230769230769;0.133333333333333;0.0869565217391304;0.0869565217391304;0.08;0.133333333333333;0.25;0.0666666666666667;0.222222222222222;0.125;0.105263157894737;0.0909090909090909;0.181818181818182;0.166666666666667;0.133333333333333;0.133333333333333;0.117647058823529;0.125;0.25;0.166666666666667;0.181818181818182;0.117647058823529;0.153846153846154;0.0952380952380952;0.153846153846154;0.125;0.181818181818182;0.142857142857143;0.111111111111111;0.142857142857143;0.111111111111111;0.125;0.125;0.153846153846154;0.125;0.117647058823529;0.0869565217391304;0.2;0.0952380952380952;0.08;0.25;0.181818181818182;0.0666666666666667;0.0909090909090909;0.0869565217391304;0.133333333333333;0.181818181818182;0.125;0.181818181818182;0.222222222222222];
  y1_step1_xoffset = [0;0;0;0;0;0;0;0;0;0;0;0;0;0;0;0;0;0;0;0;0;0;0;0;0;0;0;0;0;0;0;0;0;0;0;0;0;0;0;0;0;0;0;0;0;0;0;0;0;0;0;0;0;0;0;0;0;0;0;0;0;0;0;0;0;0;0;0;0;0;0;0;0;0;0];
  
  % ===== SIMULATION ========
  
  % Dimensions
  Q = size(x1,2); % samples
  
  % Input 1
  xp1 = mapminmax_apply(x1,x1_step1_gain,x1_step1_xoffset,x1_step1_ymin);
  
  % Layer 1
  a1 = tansig_apply(repmat(b1,1,Q) + IW1_1*xp1);
  
  % Layer 2
  a2 = repmat(b2,1,Q) + LW2_1*a1;
  
  % Output 1
  y1 = mapminmax_reverse(a2,y1_step1_gain,y1_step1_xoffset,y1_step1_ymin);
end

% ===== MODULE FUNCTIONS ========

% Map Minimum and Maximum Input Processing Function
function y = mapminmax_apply(x,settings_gain,settings_xoffset,settings_ymin)
  y = bsxfun(@minus,x,settings_xoffset);
  y = bsxfun(@times,y,settings_gain);
  y = bsxfun(@plus,y,settings_ymin);
end

% Sigmoid Symmetric Transfer Function
function a = tansig_apply(n)
  a = 2 ./ (1 + exp(-2*n)) - 1;
end

% Map Minimum and Maximum Output Reverse-Processing Function
function x = mapminmax_reverse(y,settings_gain,settings_xoffset,settings_ymin)
  x = bsxfun(@minus,y,settings_ymin);
  x = bsxfun(@rdivide,x,settings_gain);
  x = bsxfun(@plus,x,settings_xoffset);
end
